nep4 2 O Ga 
cutoff 6 4 122 33
n_max 12 8
basis_size 12 8
l_max 4 2 0
ANN 50 0
 -1.6086002e-01
  3.5496548e-02
  1.9183202e-03
  7.7382312e-05
 -1.3978986e-02
  2.6484018e-02
 -4.9884431e-03
  7.7859685e-02
 -5.6332912e-02
 -9.2541073e-03
  3.1526357e-02
 -5.1021134e-03
  6.4557502e-03
 -1.7476574e-02
  7.4219997e-03
  5.0606607e-03
 -2.8863966e-03
  8.4568914e-03
  2.1552038e-03
  3.8473535e-02
 -1.7585173e-02
 -1.4771733e-02
  3.5437127e-03
 -7.5496784e-03
 -1.4051357e-02
 -1.4902291e-02
  1.4591258e-02
  1.9934082e-03
 -1.2318176e-02
 -1.2667615e-02
 -6.6183582e-03
 -4.4157868e-03
 -3.4813948e-02
  3.1602699e-02
  6.4261421e-03
  8.9183804e-03
  1.1234226e-02
 -2.5098668e-03
 -1.1384790e-04
 -3.5893070e-03
  6.4049638e-03
  1.5036853e-03
  1.0988466e-03
  4.7456253e-02
  1.7522518e-02
  4.1054091e-03
  9.1747167e-03
 -1.7766632e-02
  1.4067839e-02
 -1.1992155e-02
  4.6200212e-03
  2.1908332e-02
  1.0177841e-02
 -2.0541614e-02
  1.1957193e-02
 -6.1099797e-02
  1.2720836e-03
  1.7231366e-02
  2.3579501e-01
 -2.4294308e-01
  2.0454416e+00
 -5.9935081e-01
  5.0733435e-01
 -2.6344314e+00
 -1.9453782e+00
 -4.3632004e-01
 -4.4283614e-01
 -3.4844382e-03
 -1.7743038e-01
 -2.1193399e-01
 -1.1067097e+00
 -3.3116117e-01
 -1.2342301e-01
 -9.2411381e-01
 -3.8827461e-01
 -2.5066974e-02
 -1.2225805e-02
  1.4334063e-01
 -2.6978496e-01
 -2.1028939e-01
 -7.5742323e-03
  1.1472286e-01
 -6.2842987e-02
  9.5712483e-02
  1.6305329e-03
 -5.0167590e-01
 -3.2395422e-01
 -7.0851274e-02
  2.4457606e-02
 -6.4070359e-02
 -9.3613237e-02
 -6.2793517e-01
 -1.4975239e-03
 -1.6970710e-01
  4.4814516e-03
 -5.8874094e-01
 -1.0939518e-01
  8.5286933e-01
 -5.6499040e-01
 -3.4635749e-01
 -8.8979319e-02
 -1.4618742e-01
 -1.0359217e-01
  7.4393079e-02
  4.5727110e-01
 -2.8023639e-01
  8.0013201e-02
  3.3586916e-02
  1.7566169e-02
  1.0902713e-02
  1.7192174e-02
  8.7810983e-04
  2.1261446e-02
 -9.7186919e-03
  2.7050737e-02
  7.8509934e-02
  7.3709767e-03
 -1.3027293e-02
 -1.1244103e-02
 -1.5222972e-02
 -6.4947773e-03
  1.7115576e-02
  1.0903077e-02
  1.2830156e-02
  1.1196471e-02
 -1.2743710e-02
 -4.8426017e-03
 -1.7489064e-03
 -1.5097532e-02
 -1.0850169e-02
 -6.6868747e-03
  4.2049070e-03
  2.2226661e-03
  1.1680433e-02
 -1.2998795e-02
  4.4523295e-02
  8.7043112e-03
 -9.3742358e-03
  1.2001330e-03
  8.6005341e-04
 -6.9470861e-04
  1.4587332e-02
  1.7121349e-03
 -2.6467885e-04
  1.7509785e-02
  1.1070440e-02
  1.0816860e-02
 -7.5075927e-04
 -7.3097064e-03
 -1.3190900e-02
 -7.5706597e-03
  1.2687729e-03
 -1.1931906e-02
  7.7296672e-03
 -1.5028443e-02
 -1.2636317e-02
  5.4823356e-03
 -2.0279328e-04
  1.4154469e-03
 -2.3307003e-02
 -1.2555125e-02
 -5.5859108e-02
  2.9182087e-03
  1.3493992e-01
  1.8676123e-02
 -3.6072902e-02
  5.0428151e-03
 -1.7763914e-03
  3.5597635e-03
  1.1860657e-02
 -2.3752651e-03
  1.7674057e-02
 -2.0219799e-02
  8.2149534e-03
 -1.6180191e+00
  2.3263733e-01
  4.8314985e-03
  2.8232501e+00
  3.0386761e-02
  1.0518352e-01
 -7.8919047e-01
  7.4308789e-01
  1.7796304e+00
 -3.3293322e-01
  5.6103909e-01
  2.2793472e-01
  4.6267226e-01
 -8.3210982e-02
  7.5049116e-04
 -5.4231126e-02
  1.7448058e-02
 -7.1285656e-03
 -7.0236064e-04
  2.2736473e-03
 -2.3738284e-01
 -1.5431815e-03
  1.1424801e-02
  9.4677821e-02
  3.0845106e-03
 -3.5768889e-02
 -2.1908684e-02
 -1.1170076e-02
 -1.0180845e-02
  2.7415534e-02
  4.7686463e-03
 -1.0215141e+00
 -6.7333453e-03
 -8.0378371e-01
 -4.1551590e-03
 -1.6674197e-03
 -9.3725221e-03
  9.0862431e-02
 -7.7792620e-03
 -7.0691353e-04
 -1.9137515e-03
 -4.0778913e-02
 -1.4327781e-03
 -1.5896134e-03
  3.4559533e-02
 -5.8019260e-04
 -1.9885084e-02
 -1.8605188e-02
  1.8064561e-01
 -1.0254269e-02
 -1.6678195e-02
 -1.9542122e-02
 -9.1910679e-03
 -1.9402155e-03
  1.7213302e-02
 -4.6334616e-04
 -2.4802429e-03
 -8.1342896e-03
  3.2694316e-03
 -1.8548914e-03
  2.1370843e-02
 -7.1254512e-03
  1.4189207e-02
 -1.3573721e-02
 -2.1508861e-02
 -2.5585834e-03
  8.1503261e-03
  2.4938106e-04
 -2.2139121e-02
 -1.4865806e-02
 -8.1428615e-03
 -1.5029224e-02
  9.1793025e-03
  4.5598159e-03
 -1.0200039e-02
 -1.4784706e-03
 -1.8128196e-02
 -1.0793987e-02
 -1.6233796e-02
 -3.4706746e-03
  3.5665580e-03
  1.2107105e-02
 -3.9899712e-03
  2.1445146e-03
 -4.2079065e-02
  2.6193908e-03
  9.8145921e-03
 -6.7895721e-04
 -1.0165141e-03
 -8.7609077e-03
 -1.7227441e-02
  1.1152805e-02
  2.1033827e-04
  2.4911980e-03
  8.3962139e-03
  7.2996540e-04
  1.0815142e-02
  5.2326778e-03
 -1.9430054e-02
  2.8531004e-03
  1.0948814e-02
  9.6837087e-03
 -5.6864176e-02
  1.9069286e-02
 -1.0286954e-02
 -4.2711161e-03
 -8.7340213e-03
 -4.2066188e-03
  6.8473453e-03
  7.3760315e-03
  6.5488904e-04
 -1.0397560e-02
  9.5334835e-03
 -1.6235022e-02
  2.4872697e-03
 -4.1343182e-02
  6.0002559e-01
 -1.1170669e+00
  1.1017371e+00
  1.0352988e+00
 -1.2129269e+00
  1.0825543e+00
 -3.2845031e-02
 -6.8693417e-01
 -5.1261687e-01
 -1.4000207e+00
 -1.6286174e+00
  8.2641020e-02
  2.7969959e+00
 -2.4941834e-02
 -2.4374548e-02
 -2.1245193e-01
 -1.1769115e-02
  1.0178114e-01
 -1.8605646e-03
  2.6519723e-02
 -5.1702289e-03
  1.8116243e-02
  1.4325798e-02
 -3.8016584e-02
 -3.6489680e-02
  1.8986282e-03
  7.9332113e-02
 -6.5353080e-03
  2.4340150e-01
  4.9529114e-01
  4.4188368e-01
 -5.0556068e-03
  1.1916576e-02
  5.5785809e-02
  7.8979963e-03
 -4.5105901e-01
  8.0460710e-03
  1.3786650e-03
 -1.2036897e-02
 -7.8054529e-01
 -8.3207309e-02
  1.8647628e-01
 -6.8280203e-03
  2.5949968e-02
 -1.5895594e-02
 -3.2890260e-02
  1.9505847e-01
 -5.8204290e-03
 -6.9298491e-02
  8.7141404e-03
  4.5040525e-03
  3.6507076e-01
  1.0392770e-02
 -6.8065985e-03
  1.6747771e-03
 -1.9535595e-03
  9.3439072e-02
 -1.4886577e-03
 -2.6304985e-03
  1.7815014e-02
 -1.8613007e-02
  3.1191531e-01
  8.7668940e-02
  2.2795959e-03
 -6.0028657e-03
 -2.0059086e-02
  3.1567067e-02
  1.6680105e-02
  3.0159715e-03
 -1.1904689e-04
  3.2112587e-03
 -1.8994723e-02
 -3.0616967e-03
  4.2859474e-03
 -1.4583264e-02
 -1.0273934e-03
 -5.3998595e-03
  8.9281863e-03
  1.9881707e-02
 -8.9618061e-03
 -1.1300687e-02
 -9.0983044e-03
 -7.0390720e-03
  1.0306776e-02
  1.5689414e-02
 -1.6521413e-02
  5.7602469e-03
  8.4485486e-03
  2.9910051e-03
  8.8834520e-03
 -7.3405006e-03
 -1.7243007e-02
  2.7144812e-03
 -2.2586803e-03
 -1.6071588e-02
 -6.0115601e-03
  5.4540909e-03
 -5.3049149e-03
 -1.2811896e+00
  5.3352001e-03
 -1.6186692e-02
 -2.0712074e-02
 -1.5473635e-02
  6.5672053e-03
 -1.2300387e-03
 -3.0921239e-02
  1.7672118e-02
 -2.2562664e-02
  1.1686046e-02
 -1.9142417e-02
 -5.0954781e-03
  1.5246901e-02
 -8.5826017e-05
 -4.0560034e-03
  5.7310322e-03
  3.3064246e-02
  3.6969751e-01
  1.2882355e+00
  1.9361368e-01
 -5.7464582e-01
 -9.9115020e-01
 -2.2717413e-01
 -2.8467131e-01
 -8.0820835e-01
  3.4702030e-01
  8.7572575e-01
  1.3233881e-02
  8.0940453e-04
 -1.7470955e+00
  1.6588976e-03
  1.4097095e-02
 -5.6749997e-03
  1.9750968e-02
  1.8093118e-02
  8.9392031e-04
  3.2533127e-01
  4.0219143e-02
 -5.6128211e-02
  7.2994187e-02
  1.2243257e-02
  4.1896563e-02
 -8.4629785e-03
 -6.9855444e-02
 -8.9170132e-03
  1.1470397e-02
 -1.0231142e-01
 -4.2785740e-01
  7.5138614e-02
 -2.1050517e-02
 -3.5528168e-02
 -5.7959437e-02
  1.5675323e-01
 -4.6638481e-02
  3.8977508e-03
  2.1161823e-02
  6.8159783e-01
 -1.2168609e-02
 -1.1946642e-02
  1.3845649e-01
 -1.6544329e-02
 -1.8063651e-03
 -1.2669932e-02
  8.8615613e-03
  4.9537741e-02
  1.0305517e-03
 -1.4530858e-02
  2.8126361e-02
 -2.4639266e-02
 -4.1066785e-03
  1.3548541e-02
  1.6072214e-02
  7.6742708e-03
 -2.8391564e-03
  1.3673312e-03
 -2.6952624e-01
 -2.9948581e-02
  2.8809186e-02
 -3.2652444e-01
  1.4133114e-01
 -2.7703005e-01
  3.7685085e-02
  1.5827978e-02
  3.0630639e-02
 -6.1691135e-01
  3.9556229e-01
  4.8043593e-03
 -9.3140584e-01
  1.5199050e-01
  3.6080261e-03
  4.3628555e-02
  6.6161610e-02
  4.8926283e-02
  3.3172395e-02
 -4.2215073e-03
  1.0620863e-02
  3.7638864e-01
  1.8626973e-01
  1.3096589e-02
  9.5567256e-01
  1.3514517e-01
  2.9441258e-01
  2.5802672e-02
  1.0030232e-03
 -2.4331108e-02
  2.2715332e-02
 -5.9408449e-02
  9.0234391e-03
 -6.9739081e-02
  1.2694207e-01
 -7.4458434e-03
  6.7736008e-03
 -3.6278008e-03
  4.7485303e-04
 -9.3836385e-01
 -9.0218350e-02
  4.0486769e-04
 -1.1305685e-01
  3.8974669e-02
 -4.4251747e-02
  1.2662457e-02
  1.1616725e-01
  5.4020733e-02
 -1.4345691e-01
  4.4001886e-03
  2.2994066e-03
 -3.5842063e-03
  1.3236224e-03
 -1.6851885e-02
  5.2435016e-03
  5.1235989e-02
  8.8072149e-03
  2.5022393e-02
 -6.6451067e-01
  6.8492323e-01
 -1.7092153e-02
  1.5387813e+00
 -1.2635161e+00
  1.2902621e+00
  1.1791900e+00
  2.1956172e+00
  9.5539041e-02
  1.8378005e+00
  1.0191710e+00
 -5.5505067e-01
  1.3568697e+00
  9.2284579e-04
 -2.5672354e-02
  1.3790995e-01
 -3.5659480e-03
 -4.7022142e-03
  3.1925538e-03
 -2.5638722e-02
 -4.7568101e-03
  1.1133882e-01
  2.8605836e-02
 -1.5745020e-02
  7.8130400e-01
 -1.3348732e+00
  8.8559739e-02
 -1.6931880e-02
  3.2318786e-02
  5.0264401e-03
  1.5075698e-01
  1.5595055e+00
 -2.0398678e-02
 -2.1402074e-03
  4.8097290e-02
 -3.3123430e-02
  1.1942854e-02
  1.8412430e-02
 -5.2952763e-02
  2.8402763e-03
 -3.9937294e-01
  6.8299975e-03
  1.1604589e+00
  6.2005822e-02
  2.8660465e-03
  4.8380750e-03
  1.6085878e-02
 -2.1919455e-01
 -1.0993419e+00
 -2.5051876e-03
  2.1929348e-02
 -5.7773991e-04
  2.4988871e-02
 -8.7201819e-03
  1.7136587e-02
 -5.8813025e-03
 -5.4862546e-03
  9.7071100e-03
 -2.3979468e-02
 -5.0595466e-02
 -2.1675066e-03
 -3.1555620e-01
 -2.8069567e-02
 -2.4118987e-01
 -1.6153072e-03
  1.0517891e-01
  5.5971865e-02
 -8.1211753e-02
 -1.2818840e-03
 -3.8489085e-03
  5.3042280e-03
  4.9085014e-02
  1.8488701e-02
 -1.2516823e-02
 -2.4406859e-04
  1.2289162e-02
  1.6318982e-02
  5.7325494e-03
  5.2831169e-02
  5.9217479e-02
  1.9527959e-02
  3.7713596e-03
 -8.4657716e-03
 -4.6860240e-03
  6.6384478e-03
  1.6927015e-02
  1.4963555e-03
 -2.8542492e-03
  5.5259731e-02
 -2.2847448e-03
 -1.9877099e-02
  1.2797453e-03
  2.1841545e-02
  1.7943671e-03
  1.1478713e-02
  1.8536817e-02
  2.0319130e-02
 -7.5789161e-02
  2.8452531e-02
  1.2153862e-02
  1.4827228e-02
  1.2053620e-02
  3.3119582e-03
 -4.2536754e-02
  2.8699304e-03
 -4.3074563e-03
 -7.3425020e-03
  3.5839184e-04
  1.2157503e-02
  1.6337277e-02
  3.7945858e-03
 -7.4282722e-03
 -4.1747750e-03
  3.0183932e-03
  2.7385630e-02
 -6.0906056e-02
 -7.3234510e-01
 -7.6239005e-02
  1.8108224e-03
 -1.5056214e-01
 -6.0617054e-01
  1.1725692e+00
 -5.6766832e-01
  1.2067508e+00
  7.9629004e-01
 -1.2975541e-01
 -1.9427274e-01
  4.6239573e-01
  8.5273141e-01
  8.6952068e-02
 -3.6414498e-03
  1.7679706e-01
 -5.7808785e-03
  1.6226694e-02
  6.4469106e-03
  2.1261047e-03
  3.3905193e-02
  6.3273031e-01
 -2.6791111e-02
  4.5308648e-03
  2.4476588e-02
 -4.8684780e-02
 -1.0159271e-02
 -1.2776110e-04
 -7.2158277e-02
 -4.4900058e-03
 -2.1854173e-02
  2.5889171e-02
  1.4433251e-02
  4.1635870e-04
  5.9480793e-03
  2.1658875e-02
  4.3744948e-03
  2.0923845e-03
 -3.3091344e-03
 -1.4177732e-01
  4.8683625e-02
 -5.5710468e-03
  7.8082189e-02
 -1.7933680e-02
  2.2363062e-03
  1.0351182e-03
  1.1629006e-02
  1.9701242e-02
 -1.5773723e-02
 -9.4754221e-03
 -1.3119805e-03
  5.5535641e-03
  9.5651555e-04
 -1.1048822e-02
 -1.8899284e-02
 -3.2077335e-02
  1.3331706e-03
 -2.8003557e-02
  8.8009768e-04
  5.6767920e-03
  6.9974554e-01
 -5.9320700e-01
  3.7187919e-01
 -3.6622662e-02
  3.6369613e-01
 -3.6592895e-01
  5.1292109e-01
  2.3602370e-02
  1.7708041e-02
  6.0773436e-03
 -1.2625275e+00
 -2.6496857e-02
 -3.0077735e-04
 -1.3003592e+00
 -5.3968345e-04
  6.1075307e-02
  1.3042567e-04
  1.1096986e-02
 -2.3443706e-02
  7.9814252e-03
 -3.2756972e-01
  2.5472767e-03
 -2.3821364e-01
 -6.0300630e-02
 -1.6990270e-02
  1.0116800e-02
  1.8262093e-01
 -9.4614718e-03
  6.4390153e-02
  8.6306834e-01
  1.0033086e-04
  7.5102437e-01
 -4.1797874e-03
 -5.3092133e-02
  3.3686142e-02
  7.2554592e-03
  2.2300056e-01
 -1.1359182e-02
  3.6556077e-01
  1.9080767e-01
  4.7578090e-01
  7.2633242e-03
  1.5568184e-03
  3.6911786e-02
  4.9915761e-03
  2.2495675e-01
  7.4554943e-03
 -5.5197771e-03
  2.6559111e-02
  4.1216046e-02
 -6.5598357e-03
  3.2767691e-03
  5.4090768e-03
 -7.6862518e-03
 -7.8579858e-03
  9.4454968e-03
  9.9511053e-03
 -6.0669882e-03
  2.2960089e-02
 -1.9241836e-02
  1.3307125e-03
 -3.6777789e-04
 -1.0526793e-02
  2.0733671e-03
  1.3516840e-02
  2.4960358e-02
 -6.6839918e-03
  2.3035333e-02
 -1.2546394e-02
  3.8744509e-02
 -7.9182955e-03
 -1.1889111e-02
  4.3331310e-03
 -1.8805811e-02
 -1.2760862e-02
  1.4754672e-02
 -3.5521463e-03
 -7.0174388e-04
 -2.3550445e-02
 -3.7318077e-02
 -4.2177685e-02
  2.8649848e-03
 -1.0494076e-02
 -1.8514493e-02
  8.9556612e-03
  1.2107783e-02
 -8.2083698e-03
  7.5742770e-03
 -8.0398815e-03
  1.2001509e-03
 -1.3155445e-02
 -1.3400712e-03
 -1.6167611e-02
 -1.9585297e-02
 -2.2413459e-02
  3.6597587e-03
  3.2816618e-03
  8.6858673e-03
 -3.1549579e-03
  8.5772956e-03
  8.7608704e-03
 -3.4815499e-03
  7.4179256e-03
 -4.5410229e-04
 -1.8245997e-04
 -3.3120371e-03
  2.4250431e-02
  8.5030887e-03
 -3.9959576e-02
  5.2322564e-04
 -8.5386634e-03
  2.5715197e-02
  4.1020359e-03
 -3.0940585e-04
  9.2413425e-02
 -1.5017752e-03
 -1.8057411e-03
 -1.4669116e-02
 -6.0191611e-03
  6.9820043e-03
 -1.1669660e-03
 -7.5087887e-03
 -2.3491091e-01
  3.0682828e-02
  1.2970815e-03
 -5.1768152e-03
 -7.9424381e-03
 -1.7202701e-02
  6.2766839e-03
 -1.3433302e-02
 -1.7693866e-02
 -2.7420400e-02
 -1.3739646e-03
  8.6495457e-03
 -1.2193772e-02
 -6.6896388e-04
  9.6265748e-03
 -1.1269110e-02
 -2.7798682e-03
 -5.4229207e-02
 -7.8064650e-03
 -1.7970398e-02
  1.2349909e-02
  2.6318248e-02
  1.9191073e-02
 -1.4691091e-02
 -3.1456538e-02
  4.0504928e-03
  1.5499029e-02
  1.7142245e-03
  1.1913524e-03
  1.3402292e-02
 -6.1891438e-04
  2.9370353e-02
  9.0065282e-03
 -3.3008396e-03
 -2.7456987e-03
 -1.5815362e-02
  4.0766909e-03
 -1.6023513e-02
  1.2074316e-02
 -1.6106030e-02
 -4.3290745e-02
  7.6282360e-03
 -4.0209640e-02
 -2.7576284e-03
 -4.4983309e-03
 -8.8185119e-03
 -5.1290882e-03
  9.2957076e-03
  3.0554840e-03
  2.0072144e-02
 -3.3694401e-02
  6.4841777e-02
  1.7674242e-03
  3.5785595e-01
  1.2542303e-01
 -7.5789772e-02
 -1.8146063e-01
  1.6650904e-02
  1.5718785e-01
 -2.2343546e-02
  1.8531237e-02
 -3.2436375e-02
 -9.2634708e-02
 -5.7287463e-03
  1.2533634e-03
  7.7059581e-03
  1.1451421e-02
 -8.6971812e-02
 -4.0350845e-03
 -1.5265554e-01
  1.8777737e-02
 -1.3166119e-01
 -3.8849808e-02
  1.2401957e-03
 -7.7309567e-03
 -6.6404357e-03
  1.1882239e-02
  1.6018179e-03
 -3.2491986e-02
 -1.5870068e-02
 -5.0836080e-04
  1.9137315e-02
 -1.1772721e-02
  1.3884719e-04
 -9.4692893e-03
 -1.6018519e-02
 -1.7639566e-02
 -5.9623256e-02
 -1.9703794e-02
  4.1891631e-02
 -3.5041392e-01
 -4.2557353e-03
 -1.9002654e-01
 -4.8085958e-02
  3.9437041e-03
  5.7761874e-03
 -1.5394750e-01
 -8.5692041e-02
  1.9687843e-02
 -7.9126162e-03
 -9.0389214e-03
 -8.5022688e-02
  1.4507934e-02
  2.0933300e-02
  3.5856653e-02
  1.4628126e-02
  7.2839158e-03
  2.4973636e-02
 -3.3105806e-02
  2.6965311e-02
  2.4923729e-04
 -5.6457985e-03
 -9.5430249e-03
 -2.1732846e-02
  1.4756777e-02
  7.3579089e-03
 -1.9456329e-02
 -2.0286966e-02
  6.5875743e-03
 -5.6939139e-03
 -2.7224519e-03
  3.3960212e-04
  1.0233481e-02
 -8.6446740e-03
 -5.5250968e-03
 -3.0975524e-02
 -5.2774744e-04
 -1.3404694e-02
 -1.9388024e-03
  4.7740564e-02
  1.4248132e-03
 -1.4429871e-02
  4.6859658e-03
  1.0915533e-02
 -3.0932599e-05
 -4.3155858e-03
 -9.6919090e-03
 -7.9289852e-03
  8.7204613e-03
  1.5226980e-03
 -4.4570495e-03
  1.4474115e-02
 -9.6124075e-03
 -6.2639392e-03
 -1.9715935e-02
 -5.8280504e-03
  5.8290809e-03
 -8.0458540e-03
  1.2876410e-03
 -3.1584734e-04
 -2.1917798e-02
 -1.9752125e-03
 -9.9523403e-03
  1.7084396e-03
 -2.4558455e-03
 -4.8797415e-03
  5.4453458e-03
  5.8918037e-03
 -9.2554865e-03
  3.2372545e-03
 -2.2111569e-02
 -3.0432153e-03
  3.5802980e-03
 -9.1600334e-03
  8.4995842e-03
 -2.9960575e-03
 -4.4137165e-03
 -4.9199509e-03
 -1.4679739e-03
 -1.3673818e-01
 -4.5120630e-02
 -1.7813131e-02
  3.4281677e-03
  1.2101694e-02
  2.4398800e-02
  2.0434354e-02
  6.3756867e-03
 -2.9504257e-03
 -9.2251915e-03
  1.9695850e-02
 -1.1208996e-02
  4.0945467e-03
  2.5491774e-02
  1.1911575e-02
 -2.6430809e-03
  5.9389539e-02
 -1.7614864e-02
  3.3908889e-02
  2.8392995e-02
 -3.6668506e-02
  1.6572084e-02
  5.3106458e-04
 -6.9849910e-03
 -8.2754588e-04
  3.1879280e-02
 -2.0241259e-02
  6.3093072e-03
  3.1396598e-02
  1.3952850e-03
  1.2974191e-03
  3.8860168e-02
  4.5380443e-03
 -6.3938298e-04
  1.5974283e-02
 -3.4628529e-04
 -1.8533932e-02
  2.1986421e-02
 -5.4506334e-03
  6.9438941e-03
  9.5544523e-03
 -8.7111900e-03
 -2.5604730e-02
 -1.2306149e-02
  1.0767567e-02
 -2.7923405e-02
  1.3966747e-02
 -3.6278069e-02
 -4.2211957e-02
 -3.5342813e-02
  1.2511112e-02
 -2.1427089e-02
  4.7547584e-03
  9.6761845e-03
  5.7175271e-03
 -3.3335350e-02
 -3.7130481e-03
  4.5989337e-04
 -3.0271187e-02
 -5.3610915e-04
 -2.5898963e-04
  1.3226423e-03
 -3.2041606e-02
  2.3117164e-02
 -1.6760670e-02
  1.0035499e-03
 -3.1603160e-03
  1.8772613e-03
  5.1450701e-03
  6.6110953e-03
 -1.7045991e-03
  1.3911784e-02
  5.1164208e-03
 -1.6923195e-02
 -4.5049968e-03
 -4.7849873e-03
 -3.7494525e-03
  2.2728670e-02
 -1.1796372e-03
  2.8911913e-02
 -9.8711830e-03
 -1.9373223e-03
 -3.5056707e-03
 -2.4599943e-02
 -3.1803634e-02
 -1.5668264e-02
 -7.4760453e-04
  4.8580859e-04
  4.9976874e-03
  1.3839105e-03
  4.0667192e-03
 -7.2256308e-03
  4.6715140e-05
  9.5377378e-03
 -7.8632962e-05
  4.6197865e-03
 -2.1677833e-02
  6.3326531e-03
 -1.2487143e-02
  1.1809738e-02
 -5.1872511e-03
  1.2115929e-03
 -8.1364410e-03
 -5.4162862e-03
 -1.2357510e-02
  7.6442421e-04
  7.6830443e-03
  6.3085714e-03
 -9.6403686e-03
 -3.0434005e-02
  4.2214189e-02
  8.3901994e-03
  4.2162058e-03
 -5.1144753e-02
  3.8878161e-02
 -9.6694464e-03
  2.0207339e-03
  1.3694720e-02
  2.4125425e-02
 -6.0722446e-03
  1.1369954e-02
  3.9173169e-03
 -2.8637130e-02
 -1.5904438e-02
  1.5609316e-03
  1.1627913e-02
 -2.8900761e-02
 -1.8406585e-02
 -8.5306186e-03
 -9.8598180e-03
  5.3850323e-02
 -1.8034952e-03
 -4.2457956e-01
  4.6887603e-03
  9.3987025e-03
 -1.6765175e-02
 -4.3081380e-03
 -1.7753199e-02
 -1.1343905e-02
 -1.2273715e-03
  3.3243669e-03
 -1.7914476e-02
 -1.7528100e-03
 -3.0588150e-02
  2.2319876e-02
 -7.5797748e-04
  5.2253632e-03
  9.2954533e-03
 -6.6639418e-03
 -8.3701210e-03
  1.3848113e-02
 -2.7101450e-03
 -8.2383752e-03
 -1.6469067e-02
  7.9173483e-03
  1.3832624e-02
 -1.4503328e-03
  1.8479768e-06
  2.3223311e-03
  2.5849376e-02
  1.8383794e-02
 -4.5347339e-03
  8.4140114e-03
 -6.2519591e-03
  1.3722209e-03
 -4.5585744e-03
 -9.4096642e-03
  1.3920769e-02
 -7.0776651e-03
  2.1553675e-03
  1.4885401e-02
  1.1518043e+00
  3.6587253e+00
  2.0523538e-01
 -4.3554118e-01
 -2.3889494e+00
 -8.1654680e-01
 -3.2204953e-01
 -1.9913614e+00
 -1.8784122e+00
  2.3303990e+00
 -2.4526615e-01
 -1.2327429e+00
  3.9420447e-01
  3.6598659e-01
 -7.7183664e-01
  1.8724328e+00
 -1.8899924e-01
 -2.0313072e-01
 -5.0087458e-01
 -1.5104413e+00
  4.4852591e-01
  1.5085312e+00
  2.9869312e-01
 -4.5439327e-01
  1.6315554e+00
  2.9199967e-01
 -2.9973541e-03
 -1.6505827e+00
  7.0182031e-01
 -2.1074143e-01
 -2.4033947e+00
  2.3171611e+00
 -2.1092939e-01
  3.4839955e-01
 -1.2860483e-01
  2.2214541e-01
 -3.5854405e-01
  2.1980925e+00
 -1.0420864e+00
 -9.6931064e-01
  1.6193697e+00
 -5.0625813e-01
  5.7061154e-01
 -8.8714354e-02
 -6.3957584e-01
  1.1481857e+00
  4.0275854e-01
 -4.6832010e-01
 -7.4585754e-01
 -9.9258232e-01
 -1.9258979e-01
 -6.4617068e-02
  2.4273144e-03
 -8.5185561e-03
  1.2398831e-01
 -1.6812050e-01
  2.8599557e-02
  8.4799576e-01
  3.4191664e-02
  1.6698066e-02
  3.5802098e-03
  5.5683017e-02
 -3.6107744e-03
  3.7142965e-03
  8.8235168e-03
 -9.0062954e-03
 -7.5002406e-03
  2.4859557e-02
  3.3065861e-03
  6.9503319e-03
  7.6561314e-03
 -1.7273525e-02
  4.5664245e-03
  4.1048676e-02
 -1.1723979e+00
 -7.2816336e-03
  8.1407413e-04
  2.2682214e-02
 -4.4767349e-03
 -2.4631245e-02
  1.5711939e-02
  2.6856817e-03
 -3.1735878e-03
 -1.8974848e-02
  6.3017577e-02
 -3.3623073e-03
 -2.5695739e-03
 -1.6941275e-02
  3.2087041e-03
  2.6963994e-02
  1.8001276e-03
  5.9174476e-03
 -9.0482011e-03
 -7.1605190e-04
 -8.2086353e-03
 -4.4389352e-02
  4.4039348e-03
 -4.8899255e-03
 -4.4610095e-03
 -7.7466760e-04
 -3.5857946e-02
 -3.1132391e-01
 -9.1799221e-04
 -3.0923575e-02
 -1.3207584e-03
  4.2774063e-03
  7.6244352e-05
 -2.3893921e-03
  2.5844730e-02
  2.1601109e-02
  2.7179732e-03
 -1.3586008e-02
  6.2695229e-03
  8.1260409e-04
  1.9771613e-03
 -5.5382377e-03
 -2.9331163e-02
 -3.4217960e-01
 -8.4015657e-05
 -3.3520839e-01
  8.8165516e-01
 -1.3996921e+00
 -2.1359992e-01
  2.2425959e+00
  1.6800607e+00
 -1.4370190e+00
  4.5142118e-02
  2.9350247e-02
  5.5157524e-02
  7.8077200e-03
  2.6909015e-01
  3.3659865e-03
  3.0907204e-02
  1.0592263e-02
  2.4859685e-02
  3.7277803e-01
  9.5082976e-02
 -1.1737551e-02
  1.8082616e-01
  5.3842120e-02
  2.8509781e-01
 -1.1028104e-02
 -1.1579727e-03
 -4.6077771e-03
 -3.0714639e-02
  1.1506471e-02
  5.0165560e-03
 -1.4831307e-03
 -3.1597440e-03
 -1.7300609e-03
 -2.7008761e-02
  2.4597438e-01
 -1.7334847e-02
  3.4087446e-02
  4.5931578e-02
  5.4249632e-01
 -2.7178235e-02
  1.2734579e-04
 -5.8674528e-03
 -2.8021364e-03
  2.0562181e-02
  3.8250419e-03
 -2.2142140e-02
  2.4435187e-02
  5.4510117e-02
  6.0827669e-02
 -2.0095026e-02
  1.5830504e-02
 -2.8337630e-02
  2.3831330e-02
 -8.0003142e-03
  2.3129940e-02
 -1.5309918e-03
  1.9619249e-02
  3.7442005e-01
  7.7169016e-02
 -3.4035552e-01
 -2.2557433e+00
  1.9019483e-01
 -2.4291220e+00
 -2.9042932e-01
 -1.5042906e-01
  1.0019863e-01
 -5.1261890e-01
 -1.2371510e+00
 -8.4010118e-01
 -3.9305541e-01
  2.0719184e-02
 -2.7154829e-02
  6.2193565e-02
  1.1592235e-01
  1.0381808e-02
  5.6983517e-03
  7.6787889e-01
 -2.2729430e-03
  1.5306927e-02
 -7.4856468e-02
  3.7180439e-02
 -2.2659151e-02
  4.6573024e-02
 -1.4604308e-02
 -1.7017253e-02
  1.0906631e-02
  5.5398624e-03
 -2.9512374e-03
  3.3553702e-01
  3.6445953e-02
  7.5397373e-04
 -1.8091882e-02
 -7.9232387e-02
 -1.9065641e-03
 -1.9621995e-01
  5.4088492e-02
 -4.8662993e-01
  4.7298488e-01
  6.8031149e-03
  1.1157106e+00
 -9.8711373e-03
 -3.2981839e-02
  9.0780184e-03
  5.2636615e-03
  3.7257660e-02
  3.8801547e-02
  2.1327663e-02
 -1.6955689e-03
 -8.5387580e-02
 -5.6048622e-03
 -2.2002311e-02
  2.3494200e-03
 -4.0455200e-03
 -4.9901740e-03
 -2.7128356e-03
 -1.7664191e+00
 -9.4041020e-01
 -6.3191658e-01
 -5.3096515e-01
  2.8241870e+00
  1.4173740e+00
  2.3482678e+00
  7.6415163e-01
  3.9036243e+00
 -1.3535213e+00
 -3.8809451e-01
 -4.0131170e-01
  3.4882119e-01
 -1.9345996e-01
 -1.1924167e-02
 -1.4778868e+00
  4.2602894e-01
  2.4699634e-02
  6.2866500e-03
  7.0606941e-01
  6.7896601e-03
 -8.6475438e-01
  1.2782739e+00
 -5.6515738e-02
  8.7461704e-01
 -9.0339556e-03
  1.3113364e-02
 -1.8878868e-02
  6.1352831e-01
  2.6200977e-01
  6.6565180e-01
  3.1613162e-01
  8.8603303e-02
  3.9627287e-01
  1.6899435e-03
 -1.0526357e+00
 -3.2379448e-03
  1.0960425e-03
 -1.4754656e-01
  2.8081790e-03
 -3.7791899e-01
  4.4192462e-03
 -5.8704145e-02
 -2.6717084e-02
 -2.8753025e-03
  2.8188636e-03
  2.1531285e-01
 -1.2339950e-02
  9.8970361e-02
  3.3392063e-01
 -1.1445289e-02
  5.2667703e-03
 -2.6731070e-03
 -1.2969631e-03
  1.1442211e-02
 -3.8568836e-03
  1.6644031e-02
 -3.4415998e-02
  2.2765808e-04
  2.5128599e-02
  1.2394315e-02
 -3.2711623e-04
  4.5669964e-03
  1.2314258e-02
 -1.4527405e-03
 -1.4100562e-02
  4.9049570e-03
 -3.8922497e-03
 -1.0876087e-02
 -4.7057485e-03
 -6.3154777e-03
 -8.1467144e-03
 -1.7450162e-04
  9.4911503e-03
  1.1550845e-02
 -2.2096660e-03
  1.1434374e-02
 -1.1957034e-02
 -5.4078363e-04
 -1.5623080e-02
  7.4118469e-03
 -7.1970131e-03
  1.5858673e-02
 -2.0921843e-02
  5.6956685e-04
  1.1732603e-02
 -2.4826320e-02
  5.5754231e-04
  4.2404979e-03
  1.9578369e-02
  1.6794583e-02
  1.5660696e-02
  1.3125075e-02
 -2.2549145e-03
  1.6156697e-03
 -3.2563319e-03
 -4.0899426e-02
 -1.0905763e-01
  1.4681999e-02
 -5.2155741e-04
 -3.6869810e-03
  1.1341417e-02
  1.5628714e-02
 -6.3191289e-03
  2.4848938e-02
  5.4164909e-02
  1.3584646e-02
 -1.0248561e-02
 -3.1617865e-02
 -2.7817963e-03
 -2.5563694e-03
 -6.8054073e-03
  1.0197327e-02
 -2.4341387e-03
  8.0815516e-06
  1.7475767e-02
 -3.7362254e-01
 -1.7327301e-02
  6.5083611e-03
 -4.1164678e-02
  8.2780719e-03
 -7.3304370e-02
 -3.8346761e-01
  2.6427087e-01
 -3.6382067e-01
 -2.2303884e-01
 -6.8427816e-02
 -2.9055107e-01
  1.7199671e+00
  1.0032210e-02
 -6.7619053e-03
 -8.7345252e-03
  1.7841917e-02
  2.7013279e-02
  7.2451574e-03
  2.1408268e-03
 -6.3925525e-03
  5.7210550e-03
  7.4899225e-03
 -3.3711426e-02
 -3.6351513e-03
  2.2089118e-03
  2.3980107e-02
  5.2221105e-03
  8.0055237e-02
 -1.0530045e-03
  3.2820439e-01
 -2.0137073e-01
 -9.1753229e-03
  2.5405753e-01
  8.0603689e-02
  1.1296919e-02
  1.5529752e-02
 -4.2269835e-03
  7.7544204e-03
 -3.9522443e-02
  2.9540574e-02
  2.1328432e-02
  1.0468268e-01
  4.1682869e-03
  1.4440884e-02
  4.1032061e-03
  9.9528104e-02
 -6.3300226e-03
  2.8093935e-03
  1.9331023e-03
  1.9915123e-04
  8.6117405e-03
 -1.1791612e+00
 -1.0537139e-02
 -8.2982685e-03
 -1.1647945e-02
 -1.1292569e-02
 -3.6482802e-03
  5.4662488e-04
 -1.6353160e-02
  2.2104280e-02
  1.6666697e-02
 -3.1238270e-01
 -3.4633493e-03
 -1.2311980e-02
  3.1555068e-02
 -1.6945448e-02
 -6.5693306e-04
  1.6301079e-02
  9.6215047e-03
  5.1462045e-03
  8.1853159e-03
  2.9442958e-03
  6.9123022e-03
 -3.9109521e-02
 -9.0061333e-03
  1.4200271e-04
 -3.3448327e-02
  1.8374760e-02
  2.2139555e-02
 -1.4397686e-02
 -2.1995800e-02
 -1.8047900e-03
  1.0016286e-02
 -3.7026405e-02
 -1.9354474e-02
 -9.7180838e-03
 -2.4530229e-03
 -6.6711665e-03
 -8.3307456e-03
 -3.6420748e-02
  1.5179926e-02
 -1.6157920e-02
  2.8370731e-03
  6.7558400e-03
 -2.3649924e-02
 -2.1183923e-02
  1.2780540e-02
 -2.5397463e-02
  4.8034161e-02
 -2.0097766e-02
  1.6279571e-02
  3.0739279e-03
 -4.1738609e-03
 -4.9916469e-03
  1.6191893e-03
  4.7058086e-03
 -1.1416191e-02
  2.9047932e-02
 -2.6588169e-01
  1.7739886e-02
 -3.5924898e-03
  5.8670761e-04
 -1.8914480e-02
 -1.8091012e-02
 -4.4972347e-03
 -1.0356357e+00
 -4.2255133e-01
 -3.5718538e-02
 -2.2991875e-01
  1.8949009e-01
  7.9926598e-01
  1.8225060e-01
 -1.8467548e+00
  1.0867444e+00
  1.7605247e+00
  1.1720829e+00
  6.1224312e-01
  2.0439401e+00
  1.4467634e-02
 -3.9413426e-04
  6.6839540e-01
 -5.5306023e-01
 -1.8503748e-02
 -6.7945808e-02
 -3.6847925e-01
 -6.9642542e-03
 -4.4317849e-02
  1.1264710e-03
  9.8000350e-04
 -1.3880603e-01
 -2.7182058e-03
  1.2420658e-01
 -7.6976478e-02
 -4.2431507e-01
  2.6888610e-03
 -4.4821016e-04
  5.6700628e-02
 -6.5750466e-03
  1.9469538e-01
 -8.1958614e-02
  4.3674320e-02
 -3.7286844e-02
 -1.4462442e-02
 -4.4201147e-03
  5.2538915e-03
 -6.1244994e-01
 -5.3971482e-04
 -2.9838321e-01
 -8.6336583e-04
 -9.2220798e-02
  1.3245177e-02
 -8.7672937e-01
 -5.3581285e-01
 -1.1404421e+00
 -6.2582986e-03
  7.2449492e-04
 -2.4971776e-03
 -1.3408164e-02
  1.8210053e-02
 -6.1866618e-04
  1.8370883e-03
 -2.5500117e-02
 -8.4568206e-03
  1.1759447e-02
 -1.0532126e-02
  1.1326293e-02
 -9.6001707e-02
 -1.5605458e-03
  6.2407092e-03
 -5.6708645e-04
 -3.7157336e-01
  1.4651807e-01
 -6.7438104e-04
 -2.9556014e-02
 -4.1736912e-02
 -1.4668442e-02
 -6.1307107e-03
  7.8666341e-03
  4.1039996e-03
  2.1872986e-03
 -5.2501522e-03
 -1.6422188e-02
  2.1842462e-03
  5.1450245e-03
  4.6301045e-04
  5.1793009e-03
 -2.4292789e-02
  9.6682096e-03
 -1.9824760e-02
 -1.5672646e-03
  1.5044374e-02
  7.2929529e-03
  1.1864457e-02
  2.1033075e-02
 -3.3054031e-02
 -1.8018875e-03
  7.5059505e-03
 -5.8811675e-03
  1.2531204e-02
  9.3190167e-03
  6.7979451e-03
  4.4018906e-03
 -1.3110858e-02
 -1.2051285e-02
  5.2276403e-02
 -8.7060956e-03
  9.0840124e-03
 -5.9677591e-03
 -3.5674123e-03
 -3.4655521e-03
 -2.3770891e-04
  1.3182373e-02
 -7.8995600e-03
 -2.2714052e-03
 -7.1953237e-03
  1.2830349e-02
 -1.6760902e-02
  7.8316554e-03
  7.5665284e-03
 -2.2969123e-02
  5.6522172e-03
 -1.1688489e-01
 -3.6758394e-03
 -1.6050359e-03
 -6.4092708e-01
  2.2028670e-02
  2.0120956e-01
  3.3492371e-02
 -7.0330918e-01
 -9.9466830e-02
 -1.0439170e-01
 -3.5058677e-01
 -1.0999509e-02
 -4.7713584e-01
  6.5487712e-03
 -2.5621669e-03
  3.6994748e-02
  1.8060734e-02
 -9.8062251e-03
  2.5491896e-03
 -6.0922429e-02
  1.0814575e-02
  1.8786455e-02
  2.9972726e-03
  6.8189427e-03
  2.1206493e-02
 -3.7314254e-03
 -4.6595786e-04
 -2.0960595e-02
  2.6225232e-02
 -3.4679204e-02
  7.7753169e-03
 -4.5246758e-02
  5.6808623e-03
 -7.1748802e-03
 -4.7529237e-03
  1.9806422e-02
 -1.4728704e-02
  1.9365102e-02
  3.1497462e-03
 -1.0862716e-02
 -2.8615754e-02
  2.1567505e-03
 -6.5549375e-03
  3.6879834e-02
  7.2716111e-03
 -1.6019061e-02
  1.3751970e-03
 -6.6425260e-03
 -2.2069409e-02
 -6.9889184e-03
 -3.8075183e-02
 -2.0359405e-03
 -4.3019084e-03
 -7.0011197e-03
 -7.1582594e-03
  7.1344753e-03
  3.4515727e-02
  2.4486419e-02
  1.2735942e-02
  3.7001822e-02
 -7.5431266e-03
  2.0467270e-02
  1.1341344e-01
  3.6484436e-03
 -8.8141877e-03
 -6.1448407e-03
 -1.0962988e-02
  2.7520236e-02
  5.4193041e-03
 -7.4396525e-03
  1.4758827e-03
 -2.9803036e-02
 -7.3876041e-03
  2.3002778e-03
 -1.0963704e-02
 -2.9882598e-03
  2.4062173e-02
 -1.7953206e-02
 -2.3876423e-02
 -1.8380158e-02
  1.4520301e-02
  3.9148428e-02
 -1.8224280e-02
  1.2263518e-02
 -1.1603299e-02
 -4.3637166e-04
 -1.5984982e-02
 -1.0786919e-02
 -7.8278437e-04
 -2.5432836e-02
 -4.2815586e-03
  4.4816588e-03
  6.1808559e-03
  1.6493667e-02
 -1.5765212e-02
  2.0747036e-02
 -2.4246909e-02
 -4.5043128e-03
 -1.1193733e-02
 -1.8766592e-04
  1.8805079e-02
  2.7448731e-04
 -1.9186999e-03
  1.0475069e-02
 -1.0753470e-02
 -2.2256315e-02
  3.3959337e-03
  3.6811249e-03
  1.2212982e-03
  2.7613178e-02
 -8.6325482e-03
  6.7091938e-03
  8.4157949e-03
 -6.8525113e-03
 -2.4196845e-02
 -8.0563715e-03
 -4.0405297e-01
 -1.2643655e-01
 -2.7038169e-01
  2.9457077e-01
 -1.1321400e-01
  6.0921423e-02
  4.5545766e-01
 -1.5065758e-01
  4.9739030e-01
  9.0119159e-01
  9.4305769e-02
  1.6209261e-03
  4.5804307e-01
  1.7130615e-01
 -1.9635959e-04
  3.3357147e-02
  4.0525183e-02
  1.9139275e-02
 -6.3196206e-03
 -2.7052453e-01
  9.4045468e-02
  1.8561459e-01
  2.7699670e-01
  1.8423074e-04
  1.1406586e-01
  2.9837424e-01
  2.4473071e-01
 -2.6830511e-02
 -1.6115872e-02
 -1.5485886e-01
  2.0993728e-02
  1.5912956e-02
  3.3872868e-03
  1.5664831e-01
  1.8567888e-01
  2.6161397e-01
  1.8027358e-02
  1.6989222e-01
  7.5987205e-03
  8.2932878e-03
 -2.7328569e-03
  9.2517035e-03
  6.2534451e-02
  4.1547194e-01
 -3.0316232e-02
 -5.6184717e-03
  1.4221396e-03
 -8.5293770e-02
 -8.7560982e-02
 -8.0903089e-03
 -8.3693685e-03
 -1.0516173e-02
  2.0049550e-02
 -6.5484736e-04
 -3.8823150e-02
  5.2287395e-04
  1.4700025e-02
  3.5999073e-03
  1.2140340e+00
 -1.4880117e-02
 -9.3283892e-02
  2.6714091e+00
 -1.2329676e+00
  8.6320275e-01
 -3.7524399e-01
 -8.6674333e-01
 -3.8465934e+00
  4.5646076e+00
 -4.2647922e-01
  1.2155062e+00
  7.9922003e-01
  8.9937228e-01
 -1.8105111e-01
  1.1277038e+00
 -1.2237849e-01
  6.2328744e-01
 -8.6408015e-03
 -1.3604836e-02
  1.1297774e+00
  1.2229271e+00
 -2.4825495e-02
  7.1474137e-03
  3.1848016e+00
 -7.1332598e-01
  9.1887987e-01
 -1.8773679e-01
  9.0896833e-01
  7.6837277e-01
  1.0229031e+00
  2.2558141e+00
 -9.8993784e-01
  1.4488158e+00
  2.4574085e-03
  3.0154899e-01
  5.2451055e-02
  1.3503991e+00
 -1.0918972e-01
 -3.2504624e-01
  7.6313627e-01
  7.9967894e-02
  5.0796419e-01
  5.6853437e-01
 -2.8793054e-02
  1.2903016e-02
  1.7945611e-01
  1.5763794e+00
 -1.1375679e-01
  1.7198954e-02
 -1.2453850e-02
  1.0970387e+00
  1.0074079e-01
 -1.2093907e-03
 -1.5551767e-03
  3.5750799e-02
  1.8273972e-02
  5.9694275e-03
 -3.0052423e-02
 -1.9973223e-03
 -5.1298821e-03
 -7.3991925e-02
 -1.9773770e-02
 -2.0237033e-01
  6.6910950e-03
  2.2863643e-02
  4.9920741e-02
 -9.0993308e-03
 -2.9752012e-02
  1.9107595e-02
 -5.2361973e-02
  6.0163462e-04
  7.1857437e-02
 -8.3366027e-03
  2.2248575e-02
  1.1349288e-03
  5.2543849e-02
  6.9413823e-03
  2.4966767e-02
 -2.3706392e-03
 -3.7702159e-03
 -4.2569623e-03
  1.0654239e-02
  2.3065632e-02
  8.9019717e-04
  1.2355682e-02
  2.5250889e-02
  1.3579912e-02
  1.7200917e-02
 -5.6756210e-02
 -3.0682188e-02
  2.3404898e-02
  1.5924070e-02
  1.1403672e-04
  1.9523734e-02
 -5.8615766e-03
  3.7524395e-02
 -1.5397276e-02
  2.1533091e-02
  4.7058493e-02
  7.2753355e-03
 -9.0164808e-04
 -6.0766507e-03
 -1.6553454e-02
  4.9253322e-02
 -3.1942809e-03
 -5.0497930e-03
 -3.5432461e-03
  4.5755007e-03
 -1.4489062e-02
 -1.3350377e-02
 -2.9187573e-02
  8.3593400e-03
  3.7099466e-02
 -3.6166705e-02
  4.3061633e-02
  8.3824294e-03
 -2.6930612e-02
  2.8975932e-03
  1.2522963e-03
 -1.3710761e-02
  6.7287055e-03
  3.8531153e-03
 -3.8544692e-02
 -1.3451055e-03
 -5.1306654e-04
  3.8343933e-03
 -5.0537042e-02
  7.0839822e-03
  1.9136042e-04
 -1.7275293e-03
  4.1163363e-02
 -8.2662515e-03
  2.4398677e-03
  4.9242787e-02
 -1.4368473e-02
 -4.0062811e-02
 -2.4925755e-02
 -3.9586672e-03
  3.6304157e-02
  1.4188748e-03
  4.6756485e-04
  7.0985210e-01
 -2.2340061e-03
  2.6690308e-03
  4.6844285e-02
 -1.8749642e-01
 -2.7654611e-02
  9.2094848e-03
  1.1075968e-03
 -4.2116422e-02
  4.5135086e-03
 -1.9554840e-02
  9.6320119e-03
  8.9411875e-03
  2.1447685e-02
  8.1705488e-03
  7.0380466e-03
 -9.4347680e-03
 -9.6565252e-04
  2.3932497e-01
 -5.1444029e-03
 -1.5334059e-02
  6.3795252e-03
 -9.5541729e-03
 -7.5806319e-03
 -5.8587855e-03
  9.1368733e-03
 -2.2518414e-04
 -4.7487221e-03
 -3.2293208e-02
 -5.9668119e-03
 -7.4073290e-03
 -6.9100475e-03
 -1.0807513e+00
 -2.3072534e+00
  7.3505723e-01
 -2.3548219e-01
  2.3261105e-01
  7.5638634e-01
  7.0854300e-01
  1.9026563e+00
  7.7609229e-01
 -2.0880630e+00
  4.4287807e-01
  1.0308623e-01
 -2.8346726e-01
  2.4217699e-01
  2.5916955e-01
 -4.2208233e+00
 -2.2717594e-01
 -1.5777236e-01
  7.1815526e-01
 -6.4718723e-01
 -2.0497936e-01
 -2.3791730e-02
 -1.3295051e+00
  8.7859286e-03
 -1.4979506e-01
  1.0658934e+00
  8.7913257e-01
  6.8899518e-01
 -6.5302920e-01
 -6.6799736e-01
 -2.0147600e+00
 -6.9396240e-01
  2.1643338e+00
 -1.3660564e+00
  9.2411041e-01
  1.6660798e+00
  3.7845082e-04
 -2.1375299e-01
 -2.3053682e+00
  2.9751949e-02
 -8.1163079e-01
 -7.7462840e-01
  9.4989061e-01
  8.7783039e-01
  1.5743986e-01
  1.8518686e-02
 -5.0202948e-01
 -2.3480635e+00
 -1.2140026e-01
 -6.7483681e-01
  8.3002672e-02
  2.0377077e-01
 -5.1031202e-02
 -1.2786772e-02
 -1.0375586e-02
  3.7339129e-02
  3.5386272e-03
 -1.4740969e-01
 -3.1817455e-02
  3.4829916e-04
 -4.2569800e-03
 -2.6654661e-02
 -2.0610403e-02
  3.0743331e-03
 -7.3388363e-03
  6.0786367e-03
 -1.1136058e-02
 -3.3195101e-02
 -1.7526634e-03
  1.3079735e-02
 -2.7966436e-02
 -1.4186712e-02
 -1.1864210e-02
 -2.2243358e-02
  2.3544766e-03
 -1.4032401e-02
 -6.3785939e-03
  1.2549827e-03
  3.1358667e-02
  2.8109765e-03
  5.6425789e-03
 -2.2891801e-02
  3.9100582e-03
 -1.9507324e-02
 -4.4759192e-02
 -1.0373039e-02
 -7.6640928e-03
 -1.3097701e-02
  1.3378453e-02
 -4.4518456e-02
  7.4877469e-03
  6.4771473e-03
  1.1710284e-02
  1.9250724e-02
  1.4218274e-02
  1.2239402e-02
  1.1178453e-02
  1.1425132e-02
 -1.0472071e-02
  2.9590424e-02
 -5.6454069e-03
  1.2136197e-03
  1.6302077e-02
 -2.1816377e-02
 -1.9799838e-02
 -1.9192144e-02
  3.9807078e-03
 -1.4654415e-02
 -1.3736169e-03
 -7.6046428e-03
  1.1251973e-02
  1.7207803e-01
  1.7054342e-02
  7.9991005e-04
  9.4866175e-03
 -6.5767011e-03
  5.5280137e-01
 -1.8277568e+00
 -1.1462963e-03
 -2.5154734e-01
  1.1575934e+00
  5.4953869e-02
  4.3935939e-03
 -9.4715726e-01
  1.3931806e-01
  5.0218570e-01
 -5.0088573e-01
 -1.8761933e-03
  7.2642816e-03
 -2.2080962e-02
  1.3237542e-02
 -6.4588025e-02
 -8.2473494e-03
 -2.0844569e-02
  4.0699183e-03
  1.1931540e-02
 -2.2069551e-02
 -2.2651870e-02
  1.3820718e-03
 -1.1203414e-02
 -1.3589804e-03
  4.3005027e-02
 -2.0358246e-04
 -1.1781866e-02
 -5.1387306e-02
 -1.4616079e-02
  5.6756333e-02
  2.7109021e-02
 -8.0895983e-03
 -2.0182277e-01
 -7.8657106e-04
 -1.0806211e-02
 -1.4038902e-02
 -2.9272176e-02
  1.9238696e-03
 -1.2611801e-02
 -1.6627537e-02
 -2.9610470e-02
 -1.6224919e-02
 -7.0227212e-03
 -1.1891006e-02
 -3.0811103e-02
 -6.5849200e-02
 -4.0229902e-02
  3.1286841e-03
 -7.7047842e-03
 -1.1815796e-02
 -5.1306587e-02
  2.3416700e-02
  9.6471040e-03
  3.1013606e-02
  4.6149800e-03
  5.1043895e-03
  7.3653646e-03
  7.6782298e-01
  8.3025806e-03
  1.7231181e-01
 -6.7826644e-02
 -6.7393057e-02
  5.5585968e-01
  1.4763081e-02
  8.4470350e-01
  1.3736597e-01
  1.9372289e-01
  4.7516152e-03
 -4.1111816e-02
 -2.1106130e-01
 -2.3058411e-01
 -2.7403016e-02
 -2.2167565e-01
 -5.4272220e-02
 -1.5137038e-01
 -2.2594193e-03
 -1.0332303e-02
  4.2686593e-03
 -3.7063143e-01
 -2.5276324e-02
  7.4508623e-03
 -9.1402400e-01
 -9.9582486e-03
 -8.1857424e-03
  1.9861208e-03
 -1.8596243e-02
  9.3162537e-02
 -5.0339248e-04
  1.8777350e-01
  1.6921102e-01
  8.2516395e-02
 -2.9659650e-01
 -7.9715244e-02
 -4.4157328e-03
 -1.0600798e-01
  2.6075408e-02
 -2.3565346e-01
  7.7146572e-01
  2.2270331e-01
  3.5771689e-01
 -6.8129814e-01
  5.6765139e-02
  2.3975139e-02
 -7.5772936e-03
 -1.6988467e-02
  3.3031610e-01
 -5.5755703e-03
 -1.1121335e-02
  3.0032676e-02
 -1.9925999e-02
  2.6390515e-04
 -4.1053407e-03
 -2.1174443e-03
  2.4604248e-02
  1.8435739e-02
 -2.2892624e-02
 -1.8305676e-03
  3.4001765e-03
 -1.2236281e-02
  9.4097126e-03
  5.1187002e-04
  7.4499701e-03
  8.2281299e-02
 -5.6525534e-03
 -1.9956626e-02
 -9.2639081e-02
  3.6546784e-03
 -4.5680068e-03
  1.2894527e-03
 -1.2264220e-02
 -7.3911366e-03
  3.3609938e-02
  2.9583671e-03
  8.5276151e-03
  9.0648024e-04
 -1.1609769e-02
  2.8316641e-02
 -3.9765695e-03
 -1.9423811e-03
  1.6555447e-02
 -6.3244873e-03
 -1.7072097e-04
  1.4487661e-02
  5.0226296e-03
  7.4710916e-03
 -4.2406261e-02
 -1.7227199e-02
 -1.4365540e-02
  2.7527292e-03
 -4.3655716e-02
  3.0304125e-02
 -5.5068517e-03
 -1.7282981e-03
  7.3725362e-03
 -4.5205031e-02
  2.6314512e-02
  1.7344357e-02
 -1.4125107e-02
  8.4732594e-03
  8.2399463e-03
  4.0553878e-03
  3.1588064e-03
  7.8858454e-03
 -1.0142734e-02
  2.1284737e-03
  4.3404945e-03
  8.3104139e-03
  6.3651325e-03
 -1.9275997e-02
  3.7112385e-03
 -1.0499562e-03
  1.2762381e-02
 -1.6289791e-02
 -8.6503197e-03
 -2.0903718e-02
 -1.0602470e-02
 -2.2995675e-03
  2.2859689e-02
 -1.8893961e-03
  1.7005539e-02
  6.3002414e-01
  3.0644410e-03
  3.3018796e-03
 -5.4042218e-03
 -2.5044749e-03
  1.3635056e-02
 -2.4820464e-03
  1.7472561e-02
  1.3165426e-02
  5.3109531e-04
  7.1609411e-03
 -1.5440699e-02
  8.6536203e-03
 -1.3542957e-02
  5.3041810e-03
  7.1375277e-03
  2.2380006e-02
  1.0015144e-02
  7.9587232e-03
  2.9307649e-02
 -1.3471157e-02
  1.3346596e-02
  8.2328934e-03
 -3.1306803e-02
  1.2753399e-03
 -7.9508312e-03
  3.2519938e-03
 -7.3172543e-03
  1.9869173e-03
 -7.2058048e-03
  3.2625321e-02
 -1.5571610e-02
 -5.8565699e-02
  1.6220726e-02
 -7.0482013e-03
 -5.0133877e-02
 -3.7141710e-03
 -4.6336609e-03
 -1.8462351e-02
  4.7697883e-02
 -3.2433490e-03
  1.2810351e-02
  1.5375476e-02
 -1.2831694e-02
 -9.4079208e-03
  2.9647872e-03
  9.8461369e-03
  1.1707512e-02
 -1.1790030e-02
 -1.8058368e-04
 -1.0159022e-02
 -7.3354691e-03
  1.3651327e-02
 -9.4791567e-03
 -5.0458852e-02
 -1.5511965e-02
  2.1748398e-03
  5.7325484e-03
 -1.0153780e-02
  1.2039258e-02
  5.7122353e-03
  1.7900919e-03
  1.2924818e-02
 -4.0302710e-03
  1.7738722e-02
 -6.4455364e-03
 -2.1463588e-02
  2.4072186e-03
  7.4704210e-03
  7.2753825e-03
 -2.7972625e-03
  7.5553181e-03
  1.4777771e-02
  1.3888689e-02
  4.4861756e-02
 -1.7829046e-03
  6.6564283e-03
  7.2812717e-03
 -2.5634233e-02
  2.5753032e-02
  1.0664649e-02
  2.0685920e-02
 -6.2629101e-03
  2.6447766e-03
 -1.5237051e-03
 -6.1966348e-03
  4.4979438e-02
 -6.3864761e-03
 -9.2577152e-03
  6.3957176e-03
  8.6013833e-04
  6.9807540e-03
  1.0302067e-02
 -1.1059036e-02
  4.5732176e-03
  6.9879964e-03
  2.1609090e-02
  4.7685811e-03
  4.9131094e-03
  1.1317751e-02
 -1.1844232e-03
 -1.4044082e-02
 -6.3899332e-03
 -1.5044226e-03
 -2.7719917e-02
 -1.6261596e-02
 -9.3529010e-03
  7.3151119e-02
 -3.2999339e-03
  2.2619081e-01
 -2.0278288e-02
 -1.8944435e-02
  2.3552594e-01
  1.3785248e-01
  3.4655595e-01
 -2.6444899e-02
 -3.9671613e-03
 -5.1454449e-01
 -6.1694048e-02
  4.3663040e-02
  1.0080077e-01
  1.2254053e-02
 -3.2251794e-04
  6.3097728e-03
  2.1844747e-02
  1.9877750e-02
  4.2453678e-03
 -2.2139993e-02
 -5.4003265e-02
 -5.1586377e-03
 -2.0020342e-01
 -8.7130778e-03
 -1.0325006e-02
 -5.3392965e-02
 -4.9841902e-03
  6.2889396e-03
  7.6484773e-03
 -1.7972074e-02
  1.5447739e-02
 -2.0302745e-02
 -4.4321157e-03
  2.8867146e-02
  4.6178242e-03
 -3.0684929e-02
  2.1882106e-03
 -1.7960636e-02
 -4.6016779e-02
  1.4858034e-02
  3.5107665e-02
 -9.1886073e-03
  1.9360322e-04
  1.9235794e-02
 -9.3611158e-02
  4.2697974e-03
  6.5066088e-03
 -1.1198182e-01
  7.8103105e-03
 -8.9614317e-03
  1.0490003e-02
 -4.8097212e-02
 -8.8509852e-03
  1.9082283e-03
  1.2003640e-02
  1.8758366e-02
 -1.4184153e-02
  7.6293694e-03
 -9.6828560e-05
  4.0357728e-02
 -9.6309829e-01
  4.2514881e-01
 -6.4318366e-02
 -7.9005146e-01
 -1.5317830e-01
 -4.7883725e-01
 -2.0777688e+00
 -1.4588400e+00
 -2.4423590e+00
 -1.4638399e+00
  4.7879556e-01
  1.5984832e-01
 -1.4975652e-01
  1.7335095e-02
 -4.8383540e-01
 -1.2092489e+00
  1.3974950e-02
 -2.2301336e-03
  2.2137668e-02
  1.9070932e-03
 -4.7539449e-01
 -2.7246100e-01
 -1.2556084e-02
 -7.6317841e-01
 -2.4519303e-01
 -1.6864006e-01
  6.3273944e-03
 -2.0210171e-02
  4.6167918e-02
 -6.1609842e-02
  2.8870687e-02
  7.6893128e-02
 -4.4635138e-01
 -3.2041204e-01
 -2.5893334e-01
  6.6839205e-03
 -5.1332295e-01
 -2.2181597e-01
 -6.0190880e-01
 -7.4604876e-02
  8.1338622e-03
 -2.5660450e-02
 -7.4401629e-01
 -1.0785951e-02
  3.8163862e-03
  2.4198312e-02
 -4.7495839e-01
  1.1713231e-01
  2.4752530e-01
 -3.1178305e-02
  3.9581943e-02
  2.6544081e-02
  2.8098992e-03
 -1.3470368e-02
  1.9180104e-03
 -1.0671129e-02
  1.0393376e-02
  1.1971826e-01
  8.5507397e-04
  3.5465550e-01
  5.7414317e-01
 -9.0685144e-02
  1.1769544e-01
  6.9995951e-03
  2.3459274e-01
  1.6346252e-01
 -2.1482922e-01
  2.9862109e-01
  2.1578200e-02
  1.1080206e-01
 -5.6091608e-03
  9.7302031e-03
  1.7509405e-03
  4.0554157e-01
  3.4183033e-02
  2.1089290e-03
 -9.6007921e-03
  2.5970016e-03
  4.1945074e-02
  2.7739242e-01
 -5.2496823e-03
  1.1013968e-01
  8.6813662e-03
 -3.4360602e-03
  3.6218807e-03
  5.0502159e-03
  1.1466978e-02
  1.7430991e-02
 -2.7530208e-01
 -9.2521980e-03
 -3.9830692e-02
  7.4196551e-03
  3.3707689e-02
  3.1343311e-02
  2.1344599e-01
 -5.6556821e-02
  3.7469992e-03
  3.8106434e-02
  1.4533613e-02
  1.2627481e-01
  1.4806732e-02
 -3.4774188e-04
  8.8149449e-03
  1.4174388e-01
  7.6617934e-02
  5.5927876e-03
 -2.5025543e-02
 -5.2883527e-03
  7.9104394e-02
  3.6371101e-02
 -5.7211691e-03
 -3.3401090e-03
 -5.2277120e-03
  2.3960032e-02
 -9.3600713e-05
 -4.5672264e-03
  1.6471406e+00
  1.7665466e+00
 -8.0900508e-01
  6.2308127e-01
 -9.1939700e-01
 -1.9961561e+00
 -2.5238758e-01
 -1.9402130e+00
  1.0199277e+00
 -1.1031481e+00
 -7.1715337e-01
  1.8769494e-01
 -2.2653988e-01
 -1.7921660e-02
  3.8426138e-02
 -2.1864437e-01
 -5.7831514e-01
 -5.7279829e-02
 -1.4565010e-01
 -2.3133330e-01
 -5.4413652e-01
  2.4192091e-03
  2.0727362e-01
  6.1764497e-01
 -1.2142624e+00
  1.6573625e-02
  4.3353298e-01
  3.9745249e-02
  1.3861756e-01
 -8.6847657e-01
  3.0681801e+00
  4.2176597e-02
 -1.0996739e+00
 -3.9623767e-01
 -2.8779832e-01
  9.0818226e-01
 -3.4679201e-01
 -1.5064774e-01
  1.1234269e-01
  1.9833333e+00
 -9.6176368e-01
 -2.1955228e+00
 -9.3504652e-02
 -3.1056838e-02
 -2.4786443e-03
 -2.3022553e-01
 -2.1438698e-01
  3.7433517e-01
 -1.0851758e-02
 -7.4582337e-03
 -7.2544271e-01
 -1.5191302e-02
 -3.5119976e-03
  2.5566861e-02
 -3.6409087e-03
  5.5061029e-03
  8.1360042e-03
 -2.5183642e+00
 -2.6820017e-02
 -9.0490717e-01
 -1.5708157e-01
 -6.2669641e-01
  1.4657286e-01
 -1.0221687e-01
  1.7248588e+00
 -1.9320085e+00
 -2.3506467e-01
  2.6702917e+00
 -1.2083402e-01
 -1.4937655e+00
  1.2195925e-02
  8.5905381e-03
  4.6692425e-03
  1.2620844e-02
 -1.1712139e-02
 -1.3250165e-02
  1.8338310e+00
 -4.8486064e-03
  1.0402232e+00
  3.6514369e-01
  2.3840654e-03
  8.2410284e-04
 -8.7100780e-01
  1.7328036e-04
 -9.8204268e-03
 -4.3674624e-03
 -1.8666338e-02
 -9.1584548e-03
 -8.5700315e-01
 -1.5977500e-02
  2.7691814e-01
  3.8209745e-01
  5.2874452e-01
  3.2243453e-02
  8.9542645e-01
  4.4113573e-02
  4.7485587e-01
 -8.1526123e-02
  9.4846049e-03
 -5.1816221e-02
  3.5845492e-02
  1.2380622e-03
  5.5032810e-03
  1.2205013e-02
  5.6787119e-03
 -5.1383190e-03
 -8.9722155e-03
  5.0632553e-03
 -9.8944455e-03
  3.5891537e-02
 -2.6583667e-03
 -1.1983381e-02
  1.7165806e-03
 -5.1984433e-03
 -2.1965647e-04
 -3.5108416e-03
 -1.8815322e-02
  8.0183446e-03
  1.0809879e-02
 -6.9441594e-02
  2.1495037e-02
 -1.8433053e-03
 -6.7681214e-03
  3.3601757e-02
  1.0563622e-02
 -3.9732315e-02
 -3.7640687e-03
 -6.0332171e-04
 -2.5218548e-02
  5.3279484e-03
  8.6580757e-03
 -1.9870333e-02
  6.1650728e-03
  5.1349141e-02
  3.1544580e-03
 -1.1332385e-02
  5.5393958e-03
  1.3261509e-02
 -1.1388241e-02
 -4.6438649e-03
 -1.1499147e-03
 -4.2000907e-03
  4.9060319e-02
  4.6376260e-03
  3.7834884e-03
  1.0714123e-02
 -3.5515659e-02
  8.0184620e-03
  2.3072348e-03
  2.2751920e-02
  1.2242107e-02
 -2.5199432e-02
  2.0238478e-04
 -1.5312182e-02
 -8.3245439e-03
 -1.3082994e-02
 -6.5141702e-03
 -8.5080504e-02
 -7.7802464e-03
 -4.2033782e-03
 -6.6210458e-04
 -8.8167759e-03
  1.8017165e-02
  1.8251896e-02
  5.7631023e-03
  1.3121942e-03
 -2.1291007e-03
  2.0833430e-03
 -1.3768623e-02
  9.9214120e-03
 -6.5478636e-03
 -7.6721180e-03
 -1.8110281e-03
 -6.9307061e-03
  3.2905072e-03
  1.0735216e-02
 -2.0277712e-02
 -3.4331340e-02
 -4.5000304e-02
  5.4204916e-03
 -1.1319141e-03
  3.3239380e-02
 -1.1471461e-01
  1.6341807e-02
 -3.8803178e-03
 -8.0589624e-04
 -6.0366439e-03
 -5.6022033e-03
  3.2162108e-02
 -8.9424504e-03
 -6.7920019e-03
  2.2486564e-02
 -1.5460369e-02
 -4.0072575e-03
 -1.4318126e-02
 -1.2852437e-02
 -1.8308585e-03
 -3.2359571e-03
  6.0343418e-02
 -4.3978398e-03
  1.7421690e-03
  1.2500606e-02
 -9.1827875e-03
 -3.1843400e-03
 -5.6643439e-03
 -3.4570065e-03
 -3.0004591e-04
 -1.3590260e-02
 -8.3976390e-04
 -2.1948989e-02
  1.3071555e-02
 -5.1476341e-03
 -1.9633828e-02
 -1.2784107e-02
  2.3607915e-02
 -4.5310622e-03
  9.3893828e-03
  8.0814827e-03
  4.3809642e-03
 -3.4110893e-02
 -1.3202659e-02
  2.5418177e-02
  1.5279474e-02
  4.3644803e-03
 -7.9281293e-03
 -7.5752884e-03
  3.2608457e-02
 -1.4964193e-03
 -1.8438024e-03
  1.8485650e-02
 -1.4176481e-02
  8.8290079e-05
 -1.1589675e+00
 -1.2809895e-02
 -3.3261116e+00
 -2.2306772e-02
 -8.4879106e-01
 -9.3258834e-03
  6.1305934e-01
 -1.9372295e-01
 -9.3124390e-02
 -2.5151996e-02
 -2.1288304e+00
  8.0988860e-01
  2.4372523e-03
 -4.5784134e-01
 -7.5726110e-01
 -3.9398135e-04
  5.4604160e-03
 -2.7732089e-02
  7.6059836e-01
  1.1989297e+00
  2.3818184e-03
 -2.0583503e-01
 -7.7451396e-01
  1.4361686e+00
  8.4318906e-01
  3.8829544e-01
  1.1167889e-02
 -2.0345533e-01
  4.5699393e-04
 -5.4967761e-01
 -2.0855844e-03
  9.6500212e-01
  2.3354743e+00
  6.1155480e-01
  6.3638208e-03
 -6.6429090e-01
 -1.0672820e-02
  5.2416086e-01
  1.2796897e+00
 -9.6493894e-01
  9.2831189e-03
 -6.6824402e-03
 -3.2371897e-01
 -2.0671160e+00
  6.4381796e-01
  2.2601481e-01
 -5.5336463e-01
 -2.8419159e-03
  1.6627209e-02
  4.2269073e-02
 -8.2218242e-01
  9.1936026e-04
 -1.9884062e-01
 -2.9280001e-02
  5.2753842e-01
 -7.7412426e-02
 -9.9663401e-01
  3.9596575e-01
  3.0367926e-01
  1.5101601e-01
  8.0599988e-01
  4.5601422e-01
 -6.4451480e-04
 -1.2790157e-01
 -4.0206105e-01
  1.1076519e-02
  9.9402525e-02
 -1.6636027e-02
  7.3888317e-02
 -1.8612547e+00
 -6.9186509e-02
 -1.1434118e+00
 -4.0974668e-01
 -8.5947001e-01
  1.3328743e-02
  1.3567924e+00
 -2.9262487e-02
 -4.3510935e-01
  8.4795430e-02
  5.4653066e-01
 -7.3854133e-02
  7.2132587e-01
  8.3542138e-01
  2.7352759e-01
 -5.3985953e-02
  1.9898959e+00
  2.8492991e-02
 -1.3326477e-01
 -8.5824728e-01
  2.3645370e-01
  1.6814440e-02
  8.0356233e-02
 -2.6333186e-01
 -7.5750583e-01
  7.2246331e-01
 -5.5001593e-01
  3.0026269e-01
  3.4590378e-02
  8.7733582e-02
  3.3314803e+00
  1.4834851e-01
 -4.2080884e-03
 -2.2297104e-04
 -4.5781579e-02
 -8.5198629e-01
  6.0207367e-01
 -4.2381725e-01
  1.1468871e-02
  1.4837325e+00
  3.4336970e+00
 -1.9152123e+00
 -2.4407476e-01
  1.3310190e+00
 -1.4334468e-02
  1.2158072e+00
 -1.6422960e-01
  2.3922348e-02
  8.1578344e-03
 -1.0294666e-01
  8.1372982e-01
  1.1655127e-01
  4.9926686e-01
 -1.2696110e-01
  7.5665879e-01
 -8.1505880e-02
 -1.8361596e-02
 -2.8532045e-02
 -2.2812097e-01
  1.5247387e+00
  1.9602290e-01
  8.9966691e-01
  2.0778583e-01
  1.2702230e+00
  1.7057627e-02
  4.1898608e-01
  7.2181202e-02
 -1.0354108e+00
  4.6922874e-01
 -8.3019689e-02
 -1.2574421e-01
 -4.7243286e-02
  1.4608377e+00
  2.3321658e-01
  1.0027387e+00
 -2.9712126e-01
 -5.8517510e-01
  2.6596591e-01
  7.6749071e-02
  3.8853943e-02
 -1.5323723e-03
  7.3489995e-04
 -2.1560594e-02
 -7.4404981e-03
  8.8410545e-03
 -2.9720683e-03
 -1.7770183e-01
  6.9166012e-02
  9.4276872e-03
 -1.4894454e-02
  6.1027259e-03
 -3.8034689e-02
  3.2718629e-02
 -2.0548189e-03
  2.4662244e-03
  5.0993590e-03
 -1.6608632e-03
  5.5544842e-03
  1.7030763e-02
  1.2146494e-03
 -9.0389643e-03
  2.2891119e-02
  4.6504829e-03
 -3.9000309e-03
  4.1836752e-03
 -5.6966417e-04
  1.1155136e-03
 -1.3164064e-03
  1.0503875e-03
 -2.9561564e-02
 -8.4487628e-03
 -2.3232969e-03
  1.5391841e-03
 -1.8278865e-02
  2.3549825e-02
  3.7962861e-02
  5.9194572e-02
  5.6498768e-03
 -1.2667673e-02
  1.3930723e-02
  6.7351349e-03
  5.1589045e-03
  1.9179048e-02
 -6.7830333e-03
  3.9087456e-02
  7.4896505e-03
  8.2915798e-03
 -3.0489981e-03
  3.0943075e-02
  1.4222687e-02
  1.0709869e-02
 -3.9210552e-03
  3.8111438e-03
 -1.6716039e-03
  5.8621690e-03
 -1.1558501e-02
  8.4148599e-03
  1.6307775e-02
 -5.6815475e-02
  1.0619900e-02
  3.0515390e-03
 -2.0484384e-03
 -1.4585195e-02
 -3.5480831e-02
 -8.7374877e-03
  1.5330639e-02
  6.5879137e-03
 -4.7059767e-03
  1.4636745e-02
 -4.6298718e-03
  8.5005611e-03
  2.9604340e-03
 -5.6508314e-03
 -2.0151181e-02
 -1.0366623e-02
  9.0332814e-03
 -4.2043015e-02
  3.1771476e-04
  8.0006244e-03
  4.7539920e-04
 -8.7363953e-03
  2.4962155e-03
 -4.2599323e-03
  3.1119162e-02
 -6.4093121e-03
 -1.7692612e-02
 -5.8515281e-03
 -9.7448565e-03
 -9.0494892e-03
  6.0657705e-03
 -3.8187718e-03
 -3.6088845e-03
  7.2700486e-02
  2.5937185e-02
  8.4933229e-03
 -1.8928666e-04
 -1.4030588e-02
 -7.2198301e-03
  1.3445362e-02
 -2.7252439e-02
  1.4727704e-02
 -3.0466076e-04
  1.3897848e-02
 -7.9177720e-03
  9.7976271e-03
 -1.9653453e-02
 -4.8896270e-03
 -1.2705510e-02
 -1.0921629e-03
  2.0440291e-03
 -1.2342106e-02
 -6.7762309e-03
  1.7587463e-03
 -2.2950355e-02
 -4.6981666e-03
 -1.6631569e-03
  2.7560950e-03
  2.8806604e-03
  3.1978558e-03
  3.2488082e-03
  5.1011555e-03
  7.4233413e-03
 -6.2441337e-03
  4.4560838e-03
  1.3327686e-03
  8.2647897e-02
  6.8972083e-03
 -1.2011680e-02
  7.4374445e-02
 -5.6269644e-03
  6.9855587e-03
 -2.8802282e-03
  2.1045784e-02
  2.9141925e-02
  4.8562204e-03
  4.0648335e-01
 -4.2077606e-03
 -1.3737500e-02
 -7.9929806e-02
  1.0591819e-02
 -1.7020958e-02
  2.3970138e-03
 -1.7722141e-02
  2.4302579e-01
  5.9787594e-03
  9.3317684e-03
 -1.6203342e-03
 -2.2658747e-02
 -9.2928037e-02
 -4.9266044e-02
 -2.0747630e-02
 -2.2268114e-03
  5.0943699e-02
  1.0350945e-02
  5.0758198e-03
 -2.9130418e-02
  2.5615937e-03
  6.1778119e-03
 -7.2320826e-02
  2.8172266e-02
  1.2245466e-02
  1.4585442e-03
  5.4476634e-02
 -1.4351595e-03
  2.8208714e-02
 -5.5900563e-02
  1.4601233e-02
 -1.4307748e-02
  3.6877665e-01
  4.8408486e-02
  1.5916234e-01
  3.0503375e-03
  7.6346686e-03
  5.7282061e-03
  1.1110915e-02
 -4.1461163e-03
 -3.5083913e-03
 -2.3918446e-02
 -2.0293223e-03
 -3.6320779e-02
 -4.1999578e-02
 -7.2170100e-03
  6.1305445e-03
  1.4464790e-03
 -2.5466979e-02
 -3.3486493e-02
  1.4036598e-03
  1.5901387e-02
 -6.5285787e-03
  1.1295835e-03
  2.1290616e-03
  1.1738747e-01
 -5.9277392e-03
 -1.0925406e-03
  6.3281193e-02
 -6.9685662e-03
 -2.6198123e-03
  2.7042641e-03
 -6.7923684e-03
 -1.6667361e-03
  2.6208139e-04
  4.2005046e-03
  1.1829379e-02
 -7.6176845e-03
  1.3773823e-02
  2.2377424e-02
  5.9299665e-03
  9.7142067e-03
  9.8153166e-03
  5.3183530e-03
  1.8152108e-02
 -9.3016280e-03
 -9.3646497e-03
 -3.9507090e-03
  3.2997970e-03
 -3.3959213e-03
 -4.5662629e-03
 -1.0330199e-02
 -9.3357814e-03
 -1.8771302e-02
  4.2569311e-04
  2.1311350e-02
 -1.0096086e-02
  2.0672163e-02
 -1.0695623e-02
 -5.8622351e-03
  4.9214098e-03
  5.0137751e-03
  2.9926400e-03
  4.5726616e-03
  9.9015506e-03
 -1.6476205e-02
 -8.6397276e-04
  3.8041247e-03
 -1.8713161e-03
 -2.0720910e-02
  2.9476292e-03
 -1.4048097e-02
  2.5936265e-02
  1.0706689e-02
 -4.4637299e-03
  4.2514428e-01
 -2.5004207e-04
 -2.0540904e-01
  1.0053378e-01
 -4.3282909e-03
  1.6642000e-01
 -2.3533642e-01
  1.4386795e-02
  4.8875797e-01
  4.7970615e-02
  2.8887457e-01
  1.2791003e-02
  4.0558679e-03
  9.5475055e-03
 -1.3537757e-01
 -1.4291403e-02
  4.3443525e-03
 -7.5154893e-02
  1.7539911e-01
  8.6615883e-02
  3.2168826e-01
 -6.8216510e-02
 -8.0888085e-03
  5.3871339e-03
 -3.8667519e-03
  3.2405663e-02
  9.9412344e-02
  8.1756335e-01
  1.8845592e-03
  1.6092059e-01
  5.4222926e-02
 -7.5481534e-03
 -2.8153220e-01
 -3.4704905e-02
  6.5281995e-02
  7.8894779e-02
 -1.2778050e-01
  1.0311686e-01
  2.4284054e-02
  2.6607510e-01
  6.9731629e-01
 -8.5598622e-03
 -1.8758446e-02
 -3.1062753e-03
 -1.2095771e-01
 -5.7260753e-03
  3.0185056e-01
 -3.7084462e-04
  3.1748585e-02
  7.2126077e-03
 -7.7674659e-03
 -2.1176124e-02
 -3.0575704e-02
 -5.7313304e-02
 -1.0951993e-02
 -2.7343744e-01
  1.3281352e-02
 -9.6642692e-03
 -1.3704437e-02
 -5.4854546e-03
  1.0334173e-02
  1.8615672e-02
 -7.9610124e-03
  3.1555365e-03
 -4.8729856e-03
  2.5070817e-03
  1.7642997e-02
 -6.4984336e-03
  2.6676490e-03
  3.7859187e-03
  2.8970566e-02
  7.2367196e-03
 -2.4675413e-03
 -1.9581633e-02
  2.6759079e-01
 -2.6383271e-02
 -1.7930260e-02
  2.3418820e-02
  7.4085067e-03
 -8.5936207e-04
 -3.8172849e-02
 -3.1031245e-02
  2.0341400e-02
  1.0613507e-02
 -8.7054563e-04
 -4.4343099e-03
  2.6452430e-02
  2.0791443e-02
 -2.3595758e-02
 -8.1706718e-03
 -1.5937861e-02
  3.7126651e-03
  1.9515030e-02
  2.9842846e-02
  1.6250683e-02
  1.1481629e-02
 -6.3333251e-03
 -3.2781479e-03
  6.3924580e-03
  2.2041462e-02
 -2.3797555e-03
 -7.8814570e-03
  1.5358135e-02
 -5.5275550e-03
 -2.7023038e-02
  1.2543734e-02
  2.3934226e-02
  5.8165425e-03
  6.6945534e-03
  1.8878359e-02
 -3.1514381e-04
 -4.6865488e-03
 -2.8821122e-02
  2.9650463e-03
 -2.0363215e-02
  7.4527151e-04
 -4.4095151e-02
  2.9719252e-02
 -3.5030404e-03
 -9.8433802e-03
 -4.1037273e-01
 -4.7607843e-02
  5.0270893e-03
  1.8814335e-02
  5.5113123e-03
  2.6209414e-01
 -2.1220087e-01
 -2.0636162e-03
 -3.9344127e-03
 -1.9074829e-03
 -3.1604874e-01
  1.9030675e-02
  2.3951208e-02
  2.4216337e-02
  3.5250273e-03
 -5.9036580e-03
  1.6511561e-02
 -1.0051246e-02
  1.4864711e-02
 -1.1110913e-02
  4.0462457e-02
 -2.2382146e-02
  2.7865550e-05
  6.5629054e-03
  3.1011730e-02
  5.8242108e-04
 -5.4161968e-03
 -7.8576729e-03
  5.8391070e-01
  1.1607972e+00
 -3.2409331e-01
 -1.2779051e-01
 -2.9817903e-03
 -1.4895483e-02
 -2.9603848e-01
 -1.5934706e-02
 -3.2151985e-01
  1.7552160e-01
 -1.9662512e-02
 -1.0560258e-01
 -1.3196616e-02
 -6.3956402e-02
 -6.6804034e-03
 -1.8223792e-02
 -4.7681583e-03
  2.2251187e-03
 -1.5764670e-02
  5.5703674e-03
 -1.0206519e-02
 -8.4793074e-03
  2.7905930e-02
 -2.8058121e-03
 -4.8847939e-03
 -3.2040747e-03
  1.1688653e-02
 -1.1915559e-02
  2.5862139e-03
  9.1624204e-03
  4.5671783e-02
 -3.3487831e-03
  3.1629212e-02
 -1.4907839e-02
  2.0795520e-02
 -1.7627795e-03
 -1.5640985e-02
  5.9579918e-04
 -7.3871769e-02
  1.8440519e-02
 -6.6767433e-03
 -5.0171297e-03
  3.2318998e-02
  1.6786680e-02
 -6.7627095e-03
  1.1480016e-02
  2.3867840e-04
 -2.0268520e-03
  1.3751094e-02
 -5.0195140e-01
  2.1638595e-02
  5.8994470e-03
  8.0965040e-04
  6.4348201e-03
  1.9922927e-02
 -2.0999152e-02
  8.5608726e-03
 -4.1628763e-02
 -1.5985843e-02
 -2.9247742e-02
  6.6680573e-03
 -3.0703849e-01
  6.7868298e-03
 -8.0611162e-02
  3.1050868e-02
  1.1944824e-02
 -1.5414236e-02
 -8.9595905e-03
 -1.0282416e-02
 -2.0139135e-02
 -1.9941872e-02
 -6.1042444e-03
 -2.1429297e-02
  2.1218408e-02
 -1.4746662e-02
 -2.9010903e-02
 -1.6144168e-02
  2.8835032e-03
 -5.7974067e-03
 -1.2671988e-02
 -3.3419367e-02
  5.4506566e-02
  4.9736323e-03
  6.8446281e-03
  7.2936547e-01
 -1.2533128e-02
 -9.5155925e-01
  1.5861951e+00
 -1.0543209e+00
  5.9844631e-01
 -8.7697661e-01
  9.5746741e-03
  2.0196133e+00
  4.2840281e-01
  2.4808550e+00
 -7.8565879e-03
  1.8984206e-01
  4.5636672e-01
  2.0887806e-01
 -7.5411834e-02
 -3.1852823e-02
 -8.6663252e-01
  1.4461113e+00
  1.8477550e-02
  3.4211776e-01
  1.7006564e-03
 -1.2066904e-02
 -4.4893521e-01
 -5.4012197e-01
 -1.7232457e-01
 -3.7053917e-02
  3.9279047e-01
 -9.3797036e-03
  4.3348845e-02
  6.0922321e-02
  7.0597901e-04
 -2.4961218e-01
 -7.4414188e-01
  3.7307635e-01
 -6.2752682e-01
 -2.8416360e-02
  1.9127339e-01
  5.5177188e-01
  2.0347783e-01
  3.2094512e-02
  1.0270639e-01
 -4.6813278e-05
  6.4599752e-01
 -1.8089629e+00
 -1.7020731e-03
  1.8739417e-01
  1.0020897e+00
 -7.9642236e-03
  9.9262241e-03
 -1.8087752e-02
 -5.0028008e-03
 -2.9604414e-02
 -1.0933006e-02
 -1.0652994e-02
  2.7956786e-02
  9.8950556e-03
  1.0814536e-02
  3.6768295e-02
 -1.0774142e-02
 -9.9825356e-03
  5.2648201e-03
 -1.2390391e-02
 -7.3783833e-04
 -5.4772520e-03
  4.3807919e-03
  3.2172538e-03
 -2.7407030e-02
  1.9459212e-02
 -4.2886930e-03
  9.4968323e-03
  1.2552365e-02
  1.9377854e-02
 -3.1291519e-03
 -1.3362108e-02
 -8.3891547e-04
  1.8967114e-02
 -6.8314467e-04
  1.4041022e-02
  1.5317269e-02
 -4.6286695e-03
  2.2133920e-02
 -1.5387771e-02
 -6.0605817e-03
 -1.5396601e-02
 -1.6794695e-02
  1.9625613e-02
 -1.8923281e-02
  1.3209935e-02
  8.5070562e-03
 -7.0477446e-04
 -4.8704986e-02
  3.2026820e-02
  1.7096980e-02
 -6.8305861e-03
  1.8468851e-02
  1.7908519e-02
  5.3793166e-02
 -1.9672334e-02
  2.3684300e-02
  5.4280120e-03
  2.0472420e-02
 -3.6421781e-03
  1.0404641e-02
  2.8006646e-03
  8.5520092e-03
  1.1186713e-02
  4.4907653e-03
  6.1169765e-03
 -3.6394496e-02
 -2.1248542e-02
 -2.5313286e-02
 -7.0912135e-03
 -2.7667560e-02
  4.6463293e-04
 -2.2393660e-01
  1.4841050e+00
 -1.8616868e-02
 -1.3817367e-02
  1.9638392e-01
  2.0544845e-01
  1.3505985e-01
 -6.6563599e-03
  5.6768069e-05
 -7.3642479e-03
  1.5693592e-01
 -6.3538635e-01
  8.0810525e-02
  2.8272571e-02
 -2.4374362e-02
 -6.6958117e-01
 -4.9040699e-01
  6.3182372e-03
 -2.5807738e-03
 -1.0796986e-01
  5.8881186e-02
 -3.8827139e-01
  9.1962117e-01
 -6.4210616e-02
  3.3441144e-01
 -2.4188034e-02
  2.6399461e-03
 -2.7330443e-02
  1.1830782e-03
  4.9490158e-02
  1.2036989e-02
  1.4976819e-01
  4.8301485e-04
  1.2186565e-02
 -9.2593837e-04
  1.0693962e-01
  3.2072738e-02
  5.7153508e-02
  4.4190493e-01
  1.2682389e-01
  3.2476965e-01
  1.6527630e-02
 -3.0010504e-01
  3.3815406e-02
  1.6930446e-01
 -4.8750520e-02
  1.1003350e+00
  1.5842417e-01
  4.1820496e-01
  6.3810525e-03
  1.5677616e-02
  1.7991012e-01
 -1.2379248e-03
 -4.3207761e-03
 -2.0418553e-02
 -9.2452718e-03
  7.1427030e-03
  1.4602721e-01
 -7.6947533e-02
  9.6212797e-02
 -7.4171452e-03
 -1.1124166e+00
  4.3409854e-02
 -8.7000035e-02
 -2.1621700e-02
 -8.1170149e-02
  1.0103129e-02
 -1.3445664e-02
 -6.5569595e-02
  5.6208277e-01
 -7.3768559e-04
  1.4261207e-02
 -1.1027038e-02
  6.6658743e-02
  6.2096980e-03
  7.0354012e-03
  7.0376731e-03
 -9.0020103e-03
  1.0643195e-01
 -3.6824259e-04
 -1.4091038e-02
 -7.2810175e-03
 -2.3020832e-02
 -1.1334239e-01
  1.1291843e-03
 -1.5745096e-02
 -5.6920610e-02
  4.5136336e-02
  6.1755581e-03
  1.0013964e-01
  2.8108677e-04
  1.3642311e-01
 -3.4593292e-02
  1.0136355e-02
  1.9677099e-02
  1.3077633e-02
  1.0499517e-01
  8.8225543e-02
  3.3595586e-01
  4.0834434e-02
  1.0684530e-01
  6.9531607e-03
  1.9577788e-01
 -6.4125648e-03
  4.2849653e-03
 -9.9545848e-03
  9.1215149e-02
 -4.7187665e-03
  5.8247801e-03
  1.4590697e-02
 -5.8118220e-02
 -2.7257241e-03
 -4.1598678e-02
 -1.5174288e-02
 -2.1016298e-02
  4.6614558e-03
  1.4955515e-01
  1.0618305e+00
  1.5528814e-02
 -1.1767550e+00
 -8.0867076e-01
 -2.0105565e-02
 -1.4088113e+00
 -3.3176929e-01
 -5.9255697e-03
  3.7042055e-01
  2.5608413e+00
  7.9207972e-02
 -6.3624665e-02
  2.0304915e-01
  3.5769860e-03
 -8.3778709e-01
 -6.9910088e-03
  2.3802450e-01
  3.6277348e-01
  2.0696247e-01
  1.9089587e-02
  2.1121432e-01
 -5.4797232e-02
 -7.8777149e-02
 -1.2928238e+00
 -2.2660705e-01
  1.6787075e-02
  2.2095232e-03
  5.9607029e-01
 -1.5738460e-03
 -2.6047492e-01
  5.3075743e-01
  9.3352050e-02
 -7.1792531e-01
 -1.5585878e-01
  3.2313085e-01
 -1.0012753e+00
 -4.9144883e-02
  5.8159959e-03
  7.2775358e-01
  6.0079910e-02
  9.0458028e-02
 -5.7895648e-01
  1.7748116e-01
 -2.6831025e-01
 -1.6612609e-01
  4.0030625e-02
 -1.3795149e-02
 -2.7118949e-02
  4.9226163e-03
 -1.1464571e-02
 -1.9404933e-02
 -4.6744600e-02
 -5.0278537e-02
 -1.2333542e-02
 -1.0891445e-02
 -2.1111698e-01
 -1.1511018e-02
  8.7695168e-03
  1.5180713e-02
 -3.4294052e-03
 -1.1081620e-02
  1.3203092e-02
  2.7737494e-03
 -3.9331466e-03
 -1.2547174e-02
  9.3849916e-03
  5.4574269e-04
  6.2521012e-04
  6.6587282e-03
 -5.0807232e-04
 -1.0077279e-02
  3.9223093e-03
  1.2698133e-02
 -3.4536300e-03
 -1.7087152e-02
 -1.1181971e-04
 -2.5707552e-02
 -1.0860657e-02
  2.2045102e-02
  3.2200404e-03
  1.9335482e-02
  4.5974432e-03
 -2.4713878e-02
  1.2863385e-02
  1.5343716e-03
  5.0758943e-03
  1.0934861e-02
 -1.1907513e-02
 -1.4881708e-04
  9.1952085e-03
  1.1716925e-02
 -1.5472065e-01
  5.1844395e-03
  1.7344665e-02
  7.5260084e-04
 -1.8102018e-02
 -1.0096592e-02
 -5.1432941e-02
 -1.2271178e-02
 -5.5172425e-03
  1.0549126e-02
 -6.5535936e-04
  9.0412088e-03
  1.7890852e-02
  2.6489629e-03
  2.3287389e-02
 -2.6724696e-02
  1.8083520e-02
  2.2494760e-03
 -5.6601074e-03
  1.5976675e-02
 -2.8284732e-02
 -9.2339972e-03
 -5.4935711e-03
  7.3761404e-03
 -1.0512492e-02
  2.6263841e-03
 -6.0815304e-03
  1.3017529e-02
  3.8072770e-03
 -2.3605712e-03
 -7.0826702e-02
  2.4129241e-04
 -3.6802087e-03
  9.7833178e-04
 -3.1089129e-02
 -1.1876427e-01
  8.5033374e-03
 -1.8419292e-02
  1.9643917e-03
 -1.7392468e-03
  1.4335506e-02
  3.3808118e-03
  2.3308465e-02
  3.0131847e-02
  6.6643353e-03
 -1.7809005e-02
  3.7395142e-03
  5.8973134e-03
  5.9382045e-03
  1.5872436e-02
 -5.6573376e-04
  4.1820746e-02
  2.0083053e-02
  1.1203183e-02
  9.3028741e-03
 -1.3211509e-02
  7.6267817e-03
  4.7996249e-02
  9.2422543e-04
 -5.8771748e-02
  8.5932538e-03
 -3.7899259e-02
  2.3239376e-02
 -9.8191984e-03
 -1.5617781e-02
 -1.9118017e-02
 -6.3833497e-03
 -5.3202759e-02
 -9.0913493e-03
 -1.8400234e-03
 -2.1154394e-02
 -3.7445229e-02
 -9.0725524e-03
 -2.2819603e-02
  2.1136044e-02
  3.2717440e-02
 -2.1120215e-02
 -1.9563932e-03
  1.4772203e-02
  1.9365918e-02
  2.0550096e-02
 -1.5618047e-03
  3.2596938e-02
 -7.9302872e-03
 -2.5136839e-03
 -3.4111865e-02
  1.1510906e-02
  6.3713775e-03
  3.8338646e-02
 -2.1657227e-02
  1.0244895e-02
 -1.4794306e-02
 -1.2295909e-02
 -6.4804796e-03
  2.3716504e-02
  1.9809196e-02
 -4.2120330e-03
 -2.4970748e-02
 -7.7986745e-03
 -8.3572557e-04
  1.3593066e-02
  7.3696394e-03
 -1.4305960e-02
 -7.7043879e-01
 -9.3578836e-03
 -4.0301238e-03
 -3.0995665e-02
 -5.9278067e-03
 -5.4996880e-03
 -9.2595099e-03
  8.8225845e-03
 -9.4369929e-03
  2.6153507e-02
 -3.7860267e-02
  1.8197892e-03
  3.4380367e-01
  6.3373416e-04
 -2.0633971e-02
 -7.1755582e-03
  2.2104632e-02
 -1.2930380e-02
 -1.9855481e-02
 -9.4533144e-03
  2.0978083e-03
 -2.2434697e-02
 -1.3715696e-02
  1.7422191e-03
 -2.5584486e-03
 -1.2317853e-02
  9.7394306e-03
 -4.1379821e-03
  3.3655544e-03
  4.8122746e-03
  2.6958665e-02
  2.8567519e-03
  1.2541651e-02
 -1.0862958e-02
 -1.9297136e-02
 -5.9035425e-03
 -2.0207979e-02
 -1.1645707e-02
 -8.7850547e-01
  8.7578837e-03
  1.4239744e-02
 -2.0529639e-02
 -3.0444281e-03
 -7.2993904e-02
  4.5512933e-03
 -6.8655498e-03
 -6.1562071e-03
  3.3565420e-03
 -3.2987692e-03
 -5.5147205e-03
  2.4366300e-03
 -7.0191124e-03
  6.1881706e-02
  1.0811655e-02
  7.1934620e-03
 -4.7900514e-03
 -2.2729384e-03
 -3.7254252e-02
 -1.9004168e-02
  1.8285359e-03
 -1.0489049e-02
  3.1243801e-02
 -5.4651788e-03
  6.4712092e-03
 -1.1610096e-02
  7.7439835e-03
  1.4779195e-02
 -1.7108094e-02
 -3.8297687e-02
 -7.4599870e-05
  7.5738470e-04
 -8.3431965e-03
 -2.9748850e-02
 -6.7944047e-03
  1.7292111e-03
 -2.0211209e-03
  1.3901072e-02
 -4.1352618e-02
 -1.0815865e-02
  1.0233243e-02
  2.9718566e-03
 -1.2268531e-02
  1.9427469e-02
  3.7447589e-03
  1.6230954e-02
  2.0235230e-03
 -8.6963531e-03
  4.3847160e-03
 -5.8763986e-04
  1.6478650e-02
  7.2367373e-03
  4.3416484e-03
  5.6919297e-03
  5.8904346e-03
  4.3764412e-02
  1.0098261e-02
  3.1681161e-03
 -1.7708139e-02
  1.2770562e-02
  3.9887436e-02
  1.1587095e-02
  1.9442512e-02
  1.9966683e-03
  8.0499994e-03
 -1.3230814e-02
 -1.1540757e-02
 -8.6960625e-03
 -1.5295227e-03
 -2.1735918e-02
 -2.5306622e-02
 -3.5791297e-02
 -2.4154191e-03
  1.2488566e-02
 -6.5221637e-04
  1.2312831e-02
 -8.5298046e-03
 -7.7210143e-03
 -4.9252845e-03
  2.9661364e-03
 -1.6265482e-02
 -4.6499139e-03
 -2.3199469e-03
  2.1447945e-02
 -4.3586334e-03
 -8.1340531e-03
  1.1956011e-02
  1.6693885e-02
 -1.1928575e-03
  4.2822254e-03
 -9.3771290e-04
 -1.6050942e-02
 -4.7081135e-02
 -1.2425370e-02
 -1.0435296e-02
 -1.9896389e-03
  5.7940716e-03
 -6.4793661e-02
 -8.9648360e-04
 -1.3033873e-02
 -2.6144240e-02
 -7.4314363e-03
  1.8000287e-03
 -8.6968699e-03
  8.4177945e-03
 -8.4317047e-03
  1.7065168e-03
  6.1401464e-03
  9.5132849e-04
 -4.1242326e-03
  6.5014903e-03
  4.1674417e-03
  3.6584341e-04
 -3.0920072e-02
  3.7441220e-02
 -4.5799431e-01
  4.8799913e-02
 -2.5661954e-01
  3.6821365e-01
 -2.1371098e-01
 -7.1956299e-02
  3.5348341e-01
  3.8986439e-03
  3.5254213e-01
 -4.9415910e-01
 -6.2939596e-01
  6.5626256e-02
 -1.3574228e-01
  3.8895682e-03
 -5.8744889e-02
  1.2465864e+00
 -3.7174037e-01
  8.6030519e-01
 -1.3009393e-01
  1.0349525e-03
  2.2464387e-01
 -1.1586719e-02
  3.6955759e-02
  1.2609639e-02
  1.3969449e-02
 -2.7884769e-01
 -5.9265321e-01
  1.1930763e-02
 -1.2931835e-02
  1.0366016e-02
  6.9871910e-02
  2.4104897e-02
  4.0492727e-03
  2.1944094e-02
 -1.9249342e-01
 -7.4275130e-01
 -1.4546821e+00
 -2.0847785e-01
  1.4224966e+00
 -1.0878236e+00
  4.9030364e-01
  1.9913517e-01
  4.4838089e-01
 -2.6646197e-01
  1.0371391e-02
  1.4000261e+00
 -1.5414491e-01
  1.0627177e-01
 -1.7593671e-02
  1.3660747e-03
 -4.6094783e-02
 -1.4447090e-03
 -7.4362820e-03
  2.5268365e-04
  3.4247175e-02
 -1.4271173e-03
 -6.9384164e-01
 -1.1317506e-02
  1.0463659e-01
  3.1318460e-02
  8.3187111e-03
  4.8972722e-03
  1.2593053e-03
  1.0328530e-02
 -2.9903608e-03
 -5.0907005e-02
  1.6403609e-03
 -1.3885700e-02
  1.2622427e-02
 -1.2224169e-02
  2.6838551e-04
  2.8366698e-03
  1.2261332e-03
  7.4224928e-03
  1.4561644e-03
 -8.2920995e-03
  4.7001410e-03
  5.3110057e-03
 -1.3107605e-03
 -5.1677255e-03
 -2.4009941e-02
 -1.9930702e-02
 -2.6252940e-02
  8.2978985e-04
 -7.7210134e-03
 -1.0465878e-02
  1.6160820e-02
  9.0296054e-03
  1.8532849e-03
  1.8736131e-03
 -4.7504056e-02
 -3.1916879e-02
  6.3655889e-03
 -2.3967458e-02
 -1.0673395e-02
  1.1177167e-02
  6.2635049e-02
  3.4319314e-03
 -1.0968342e-03
  2.8905110e-03
  3.2295149e-03
 -2.6600627e-02
 -2.9243040e-03
 -2.0983469e-02
 -5.8911066e-03
 -2.5260239e-04
  2.4636131e-02
 -2.7733298e-03
  4.1271467e-04
 -2.1654898e-02
  1.8828033e-02
 -8.3125578e-03
  1.5847534e-02
 -1.4242798e-04
  1.1330420e-02
 -1.0219826e-02
  1.0522014e-02
 -1.8605255e-02
 -5.6692641e-03
  1.4766999e-02
 -1.4383124e-02
  1.2114313e-02
 -4.6745222e-02
  4.7299652e-03
  1.4003001e-02
  5.4811273e-02
  3.7611902e-04
 -1.2579294e-02
 -6.8376628e-03
 -2.1601638e-02
  5.6352112e-02
 -6.9573717e-03
  2.9331684e-02
  3.3485086e-03
 -7.1159685e-03
 -1.3020104e-02
 -8.5449656e-03
 -2.1733122e-02
  1.2238636e-03
 -9.0917945e-03
 -1.9810144e-02
  2.0932438e-02
 -2.1318775e-03
 -8.8370955e-03
  2.2046937e-02
  5.2362327e-03
  1.0376461e+00
 -2.4045778e-02
 -4.3607194e-02
 -5.7734801e-03
  1.0317678e-02
 -1.2025724e-02
 -2.3713978e-02
 -1.9067921e-02
  5.1335334e-03
  5.6083808e-03
 -1.5850043e-02
  1.1506077e-02
 -6.8634856e-03
 -8.0433273e-04
 -2.7152055e-03
  2.6954073e-03
  2.7344311e-02
 -7.5201616e-03
 -2.7717946e-02
 -4.0466385e-03
 -6.7727119e-03
 -2.2963701e-02
 -1.9255513e-02
 -3.4367265e-03
 -1.2478810e-02
 -2.7874982e-02
  2.2744754e-02
 -1.9095588e-02
  9.7723166e-03
  3.7328461e-03
  9.6086562e-03
 -5.9803687e-03
 -2.7340073e-03
 -9.8429667e-04
  5.5844765e-03
  5.7953279e-03
  2.1133490e-02
 -8.7264869e-03
 -1.4565378e-02
  6.1283070e-03
  9.7387843e-04
  1.5304126e-02
 -1.3275670e-02
  1.4919660e-02
 -3.7170514e-03
 -8.6049782e-03
 -2.2714373e-03
 -1.5984746e-02
 -2.7437257e-03
  3.1237339e-04
  1.9584248e-02
  5.8902111e-03
 -5.5367788e-03
  1.7455639e-04
  7.9665836e-03
 -2.7193660e-03
 -8.6089568e-03
 -2.5679439e-03
 -1.2640882e-02
  1.9299367e-02
  1.5199890e-02
  1.3161397e-02
  4.2238757e-03
  6.4180614e-03
 -2.5368514e-03
 -9.3407277e-04
 -2.6725996e-03
 -4.6260552e-03
 -1.5649833e-03
 -3.4946732e-03
 -5.4891822e-03
  1.1942158e-02
  1.4818765e-02
 -3.8642365e-02
 -1.1413645e-02
  8.9984983e-03
 -8.1178928e-03
  1.8680535e-02
  1.8615030e-02
 -3.1861034e-04
  2.0321202e-03
 -6.1016949e-04
  1.4679597e-02
 -6.2529319e-03
  1.9839205e-02
 -1.9980381e-01
 -2.4873745e-03
  2.6837992e-03
 -2.4514860e-01
  1.8591630e+00
  4.9012756e-01
  1.2670366e-01
  1.1684231e-01
 -1.2217138e-02
  2.2283311e+00
 -8.4213161e-01
 -5.3549665e-03
 -4.1664466e-02
 -5.5521697e-01
  1.1082647e-02
  1.6400436e+00
  2.0191279e-01
 -6.2978230e-02
  7.1653211e-01
 -2.8414384e-01
  4.5587705e-03
 -1.4497290e-02
  3.3610684e-01
 -3.4744912e-03
 -3.6158327e-03
 -2.1695395e-01
  1.2319619e-03
  2.7058803e-02
 -7.1693587e-01
 -2.0063600e-02
 -1.2245177e+00
 -6.1344203e-02
 -3.3619115e-01
  4.5458439e-01
 -3.1946842e-02
 -3.2631916e-01
 -5.7204169e-01
 -7.7865654e-01
 -4.7908869e-04
  2.7908737e-02
  2.9376340e-03
 -1.1553742e-03
  1.4430673e-01
  3.4526836e-02
 -8.8933092e-01
 -5.0118583e-01
 -3.4726992e-01
 -1.1177841e-02
  2.4993202e-01
 -1.2942187e-02
  3.7796941e-05
  4.2042084e-02
  8.0258902e-03
  1.5869012e-02
 -5.0224210e-03
  4.9610883e-03
  5.4166098e-03
  9.6092001e-03
  1.6698496e-02
  1.9440617e-02
 -5.6247590e-03
  1.4665920e-02
 -2.0251527e-02
  6.8189315e-03
 -5.7039182e-03
 -1.4632564e-02
 -7.9700463e-03
 -7.0689037e-04
 -7.6516932e-03
 -7.9044723e-04
  6.1030425e-03
  4.1830470e-04
 -1.0994025e-02
 -9.8972386e-03
  8.7925186e-03
  1.5268466e-02
 -2.1136036e-02
 -9.7492826e-04
 -4.6880703e-02
 -2.7971935e-02
  1.4729261e-02
 -6.8261418e-03
  1.2820059e-02
 -5.6310436e-03
  2.7674897e-02
  1.7176762e-02
  1.7649118e-02
  1.2085657e-05
  4.1314298e-03
 -7.9454528e-03
 -1.1567346e-02
 -5.7597540e-02
 -8.0995876e-03
  1.0404935e-02
 -8.0270078e-03
  2.2267584e-02
 -5.3304965e-03
 -5.9115468e-03
 -7.0422441e-03
 -3.0918675e-03
 -2.7429066e-03
 -3.0691272e-02
 -7.4708438e-03
 -1.0272240e-03
 -2.4170629e-03
  1.6996004e-02
 -1.4308360e-02
 -5.4759448e-03
  6.1074039e-03
  1.1354032e-02
 -4.5815870e-02
 -2.9800016e-02
 -2.2376445e-03
 -2.3743074e-02
  4.7552213e-03
  1.0761146e-03
  5.2801669e-01
  3.9567435e-01
  1.6011545e-02
  1.8677612e-01
 -1.7773244e-01
  1.4056998e+00
 -5.2893445e-02
  2.8390376e-02
 -6.5428889e-03
 -2.8902495e-01
  3.5887030e-01
 -8.6613290e-02
  5.6855001e-02
 -1.9682935e-01
 -1.8182248e-02
  5.4069656e-01
  6.2123924e-01
  1.5313552e-02
 -8.4282137e-02
  4.7830138e-01
  4.6551097e-03
  4.9324486e-01
 -8.1353006e-04
 -1.2190425e-01
  5.0154191e-01
 -1.2806393e-01
 -1.3360317e-01
 -1.4264241e-01
 -9.5902421e-03
 -5.5541366e-02
  1.2139720e-02
  1.5147793e-01
  1.2281480e-02
 -4.6444920e-01
 -5.1865566e-01
 -1.1898673e-01
  1.1202537e-01
  1.7022344e-01
 -1.5243731e-02
 -1.1223610e-01
  2.5702532e-02
 -8.4908763e-03
 -5.9661859e-01
 -9.0624727e-03
 -1.0237562e-01
 -7.4377513e-01
  3.4933232e-02
 -7.8024529e-03
 -6.0967952e-01
  2.7777266e-02
  1.3040623e-02
  6.8303025e-03
 -1.5640341e-02
  7.3893843e-03
  1.6355166e-02
 -1.4271219e-03
 -4.8877001e-02
 -5.1545203e-03
  9.7371574e-04
  5.0640949e-03
 -2.5251117e-02
  3.0896254e-04
  3.7924331e-03
 -3.5428625e-02
  7.5788349e-02
  6.3570896e-03
 -5.5511398e-03
 -3.9897001e-01
  1.9488697e-03
 -8.4049525e-03
 -7.6525058e-03
  7.1365647e-03
 -1.3816398e-02
  3.0577157e-03
 -7.4259620e-03
  1.0601545e-02
  6.1468515e-03
 -2.1200965e-03
  3.2664336e-02
  9.8686554e-03
 -3.3836123e-03
 -2.0792095e-02
  2.6613574e-02
 -9.3976455e-03
  1.0845712e-02
 -5.6492230e-03
  7.2833728e-03
  6.0714702e-03
 -1.5923649e-02
  2.9525938e-03
 -1.3259364e-02
  1.3264901e-02
 -2.4362199e-03
  2.3773717e-02
  5.6240786e-02
 -3.9853095e-03
 -6.6807163e-03
  3.3994422e-03
  1.7841641e-03
  1.5752621e-02
  1.7330267e-03
  1.2178631e-02
 -6.1971284e-03
  8.9266459e-03
 -2.3598329e-03
 -8.6465329e-03
  7.4529466e-03
 -8.6779948e-03
 -5.2258419e-03
  1.3301351e-02
 -4.8390981e-03
 -5.5244789e-02
 -1.2355697e-02
  3.3958785e-02
 -1.4679094e-02
 -6.0066720e-04
  1.7357692e-02
 -2.9388295e-02
 -2.1112394e-02
  2.4174622e-03
  5.9832371e-04
  6.0161855e-04
 -1.5636913e-02
  3.0189392e-04
 -2.1495949e-03
  9.4214501e-04
 -3.5268669e-03
  6.8271304e-03
 -1.2674391e-02
 -1.2052868e-02
  1.4688415e-03
  5.8035394e-03
 -2.3239275e-02
  2.4386407e-01
  1.6799796e-02
  5.4318849e-03
  4.2183818e-03
 -2.5456725e-03
  8.3413266e-04
  2.8607668e-03
 -3.2606113e-04
 -1.1375738e-02
  2.4624251e-02
  6.7928201e-03
  3.1449486e-02
 -3.7538730e-02
 -5.0219871e-02
 -3.5231758e-03
  1.8632945e-02
  1.2624217e-02
  7.0997314e-03
 -1.0962019e-02
 -8.8892126e-04
 -1.0408561e-03
 -3.0252426e-03
  9.5016109e-03
  2.9080592e-02
 -2.3197245e-03
  6.0121249e-03
 -7.5243288e-03
 -6.7578871e-03
 -1.2510533e-02
  3.9166501e-03
  1.7828576e-02
  3.9402014e-03
 -1.3614306e-05
  5.1734236e-04
 -1.3033330e-02
 -1.2159252e-02
 -2.8066345e-02
  1.4167079e-03
  2.2620745e-02
 -5.0377664e-03
 -1.3110824e-03
 -3.3272739e-02
 -1.4617061e-02
  2.4740996e-02
 -1.0700356e-02
 -1.3396134e-02
 -1.8288381e-04
 -3.1510387e-03
  8.1724452e-04
  8.3984267e-03
 -8.5029984e-05
  1.5404046e-02
 -3.4197289e-03
  8.9185946e-03
  1.4929982e-02
  1.2347647e-02
  1.0238497e-02
 -4.9998563e-02
 -4.6813311e-03
 -1.1234973e-02
  3.5854841e-03
 -1.9857764e-02
  1.5922277e-03
 -1.2493999e-01
  3.4901064e-03
 -3.6258483e-03
 -3.4479639e-03
  3.0868570e-03
  2.8689656e-02
  1.2439668e-02
 -2.3490632e-02
 -1.4202293e-02
 -2.6173299e-02
 -3.4479655e-02
 -2.7444376e-02
 -3.0696378e-03
  9.2575587e-03
  6.9583999e-03
  1.5956199e-02
  1.8628923e-03
 -1.5398763e-02
  8.3511416e-03
 -2.6400057e-03
  2.9726749e-02
  6.3623106e-03
 -1.2332584e-02
 -5.8725453e-04
 -2.1173220e-02
  7.2718440e-03
  4.3150978e-03
 -3.5534077e-04
  1.6130522e-02
  7.8711491e-03
 -2.1776103e-03
  2.1990093e-03
  5.0550066e-03
 -2.4674075e-02
 -3.8056958e-02
  3.8828156e-03
 -6.5616332e-04
  1.0719291e-02
 -1.8934648e-02
 -1.1131669e-01
 -1.2690108e-03
 -6.9365818e-03
  9.2321321e-02
 -4.3363879e-03
  9.8671960e-03
  4.7060233e-03
 -2.4622289e-02
  1.2910740e-02
 -1.4817350e-02
  2.4158778e-03
  4.9420483e-03
 -6.9963802e-03
  5.7441387e-03
 -3.1801596e-02
 -2.6553553e-03
 -6.5207188e-03
 -1.1934121e-03
 -6.5038097e-04
 -8.5494127e-03
 -6.0664788e-03
  1.7700521e-02
  6.2391210e-02
  2.4384659e-02
  1.3535253e-03
  1.8579522e-02
 -1.3945909e-02
  2.4485635e-04
  1.3186047e-02
  3.2773938e-02
 -1.5807271e-02
 -3.0706124e-03
  4.9452903e-04
 -7.0610181e-03
 -6.8186820e-03
 -1.3527334e-02
  1.1545762e-02
 -3.5032280e-02
 -1.0361569e-03
 -2.8086465e-02
  2.7414374e-02
  5.4573119e-03
 -2.6453990e-03
  1.1074030e-02
  1.8884391e-02
  4.6645175e-03
 -4.1610724e-03
 -4.3339999e-03
  1.5530348e-02
 -2.0524731e-03
 -1.3492678e-02
 -1.9356400e-03
 -8.0701839e-03
  9.7557902e-04
 -1.7778730e-02
  2.4156641e-02
  2.1119868e-02
 -3.1905200e-03
  5.8082505e-03
  4.7253082e-03
  3.0580740e-03
 -1.4368537e-02
  1.0340828e-02
  2.1850852e-02
  1.0700203e-02
  3.0371141e-02
  2.7715830e-02
 -1.3184594e-02
 -8.4479926e-03
  3.4666634e-03
  8.4972821e-02
 -5.9819613e-03
 -7.4368035e-03
  1.0730747e-02
  2.7391054e-02
  1.3552438e-02
  8.1134904e-03
 -1.2129820e-02
  7.3249405e-03
  8.9818556e-03
 -1.7510198e-02
 -1.8688974e-03
  1.9959221e-02
  1.2164321e-02
  6.8295989e-03
  1.9364136e-03
  4.1992422e-02
  1.3279442e-03
 -3.5643723e-04
 -1.4050499e-03
  1.7196972e-02
  1.7692417e-02
 -8.5115600e-03
 -3.4246335e-03
  8.8905752e-02
  4.4578366e-02
  2.2429079e-03
  1.9909781e-03
  1.0037730e-02
 -8.3479499e-03
  1.7016545e-02
 -3.8411811e-03
 -9.6307544e-04
  5.2356582e-02
 -6.8436814e-03
  1.1108443e-02
 -4.2412430e-04
  5.5640507e-03
  7.0935441e-04
  3.6245522e-03
  1.0470912e-02
 -1.4972447e-02
 -1.0109864e-02
 -5.0922409e-03
  1.4415310e-02
 -1.6095673e-03
  3.8827616e-03
 -2.6017621e-02
 -1.2337307e-02
 -1.0029121e-02
 -1.3694019e-02
  7.5637037e-03
  1.7974824e-02
  1.8509766e-03
  3.3314496e-02
 -1.0224320e-03
 -6.5267012e-03
  1.9317421e-03
  2.5838859e-02
 -1.0255583e-02
 -1.0787921e-02
 -2.6834847e-02
  1.2219463e-02
  2.3055440e-03
  1.5093656e-03
  2.4664490e-03
  4.5915544e-03
 -4.8784610e-02
  6.9401108e-02
  7.0143491e-03
  1.2118718e-02
  3.2483297e-03
  1.4897265e-02
  1.0253496e-02
  3.3226870e-03
 -2.8037089e-03
 -1.7826153e-02
 -1.6305277e-02
 -2.6160784e-02
 -4.3435241e-03
  1.7950374e-03
 -1.3411544e-02
  2.4024054e-02
  3.9157146e-03
 -4.9054958e-03
  1.5797982e-02
  1.7418040e-02
  3.3078613e-03
  5.7866690e-03
 -1.3577873e-02
 -3.6301643e-02
 -9.6877925e-03
  2.0456428e-03
 -2.3202367e-02
 -3.6589999e-02
  6.9899638e-03
  5.8389083e-04
  6.1523868e-03
  1.8551981e-02
  1.0232535e-02
  1.3558140e-02
 -3.2505258e-03
  1.3570578e-01
 -2.0298192e-02
 -5.6949193e-03
 -9.5489132e-04
  1.8074777e-02
  2.5317480e-04
  7.9419110e-03
 -1.0279414e-03
  8.8160681e-03
  1.8696177e-03
  2.8815746e-02
 -2.0561639e-02
  9.0877190e-03
 -1.0413080e-02
  1.2513442e-01
 -3.8714565e-02
 -1.0110585e-02
 -6.9795735e-02
  5.8609792e-03
  4.5494545e-02
  8.9168847e-03
  3.0916555e-02
 -2.9525377e-02
 -6.0255434e-02
 -4.0368335e-03
 -1.6986917e-03
  1.7726198e-02
  5.8468468e-03
  5.6576345e-02
 -1.0536695e-01
  5.3650592e-02
  1.3750879e-03
 -1.1642244e-01
  1.1637607e-02
  1.1927180e-02
  4.5855278e-03
  2.3028238e-03
  8.1787921e-02
  2.4948031e-02
  5.8450356e-02
  7.6351114e-02
  3.0828428e-02
  3.9148037e-03
 -1.5151028e-01
  1.8330917e-02
  1.2335863e-03
  1.0595287e-03
  1.7955521e-01
  5.2447096e-03
 -8.8985749e-03
 -2.8356131e-02
 -3.9831802e-02
 -2.1068337e-03
  1.2985054e-02
  9.3059037e-03
 -3.4765375e-03
  1.2859203e-02
 -3.0728224e-01
  2.9621363e-02
 -5.7267573e-02
 -1.8910325e-01
  7.4968934e-03
 -6.3279021e-01
 -2.8012648e+00
 -7.6097585e-03
 -6.8911333e-03
 -5.6478854e-02
  1.6049048e-02
 -1.8451348e-02
 -5.5536125e-02
 -3.5298890e-03
  1.6567754e-02
 -2.6098441e-02
  3.1297937e-02
  1.3111791e-01
 -5.1003899e-03
  6.1196083e-01
 -1.2044785e-02
  1.1127433e-01
  1.0283827e-02
  4.2725266e-03
  1.4198227e-01
 -2.8574467e-04
  5.7924235e-01
  1.8440238e-01
  3.5186268e-02
  7.2231675e-03
  3.0977449e-01
  6.7111184e-03
  8.1273429e-02
  1.2649664e-01
  1.1592920e-02
  1.1875315e-01
 -1.3888055e-02
  3.3079416e-01
 -6.7660818e-03
  4.3089479e-02
 -2.0432705e-03
 -4.0434371e-03
  1.2021033e-01
  7.5762175e-02
  2.0755811e-02
  1.8475127e-01
  2.0013605e-01
  1.3384577e-02
  1.1390810e-02
 -2.4359198e-02
  1.3740779e-02
  2.7607748e-01
 -2.4092203e-02
 -1.8498961e-02
 -6.3517638e-03
 -8.5829664e-03
 -3.0445515e-03
 -1.8895991e-02
  9.9178320e-03
  1.7618125e-02
  1.1330470e-02
 -1.4354370e-02
 -2.0734532e-02
  1.3077620e-02
  8.5774502e-03
 -1.0405423e-02
 -1.6991424e-03
  2.1558568e-02
 -1.7241916e-02
  2.5666106e-02
 -1.8688232e-04
  2.9355848e-02
 -1.9846354e-02
 -3.2731169e-03
 -6.9601238e-03
  2.5074096e-02
 -3.8467278e-04
 -1.5346527e-02
 -2.1297373e-03
 -3.6670838e-02
 -7.6492445e-04
 -1.7534574e-03
 -8.0981972e-03
 -1.5032758e-02
  6.2924298e-03
  5.7257963e-03
 -5.4942663e-03
 -5.3700898e-03
  1.2287905e-02
 -3.3783666e-03
  1.4149035e-02
  1.5456280e-03
 -1.5160859e-02
  1.0945164e-02
 -8.0915764e-03
 -2.1231461e-02
  2.8424191e+00
  1.8333647e-03
 -3.5582629e-03
 -1.6329959e-02
  9.0742828e-03
 -9.9132806e-03
 -1.0153316e-02
  1.6338812e-02
  2.1590402e-02
  2.9446236e-03
 -6.1616872e-02
  1.6880833e-02
 -4.0178653e-03
  1.1455595e-03
  2.1003339e-02
 -4.2822277e-03
 -7.3221386e-03
  1.7799243e-02
  8.9590310e-04
 -2.5025941e-02
  1.0757959e-01
 -5.2667010e-01
  1.6924901e-02
  3.9093384e-01
 -4.4031730e-01
  2.5392762e-01
 -1.4657532e-01
  1.5322918e-02
  1.5873680e-02
  2.0071954e-02
 -1.1120132e-01
 -4.1673359e-01
 -1.9163068e-03
 -1.3693571e-01
  3.8496450e-02
  4.4840208e-01
  8.0671795e-03
  2.4890106e-03
  4.7025394e-02
  4.4025099e-01
 -1.2762736e-01
 -5.5495864e-01
  2.1975359e-01
 -1.2000448e-02
  4.0859076e-01
  1.6397994e-03
  1.5279354e-01
 -3.6052156e-02
 -5.8985804e-03
 -3.3916354e-02
 -1.4122677e-01
 -2.5461060e-03
  2.6396921e-01
  1.4792453e+00
  1.2339283e-01
  4.3696851e-01
  4.6491802e-02
 -7.7871501e-02
 -2.4381195e-01
 -2.1116953e-01
 -1.5399568e-02
 -1.8893210e-02
  1.2604529e-02
 -1.2033463e-01
 -5.1953691e-01
  3.2147673e-01
  1.4445537e-01
  3.1203928e-03
 -1.7227913e+00
  1.2023125e-02
 -3.0715372e-03
  5.0294936e-01
  5.0115138e-02
 -7.0397211e-03
  1.2130827e-02
 -1.6479189e-02
  2.5416890e-01
  1.6366155e-01
  2.2876461e+00
 -5.0002575e-01
  7.4484684e-02
  4.8369190e-01
  2.6939631e-01
  2.1458089e+00
  7.6141334e-01
 -2.8906253e-01
 -2.3084880e-01
  4.4566554e-01
  4.2067474e-01
 -2.8571818e+00
  1.1070471e-02
 -3.2091039e-01
  1.7915964e-01
  7.9416156e-01
  1.5620874e-01
  9.5310408e-01
  5.5842102e-01
  1.0076312e+00
 -9.2443877e-01
 -6.9432247e-01
 -6.9116008e-01
  3.5777044e-02
  2.6416603e-02
 -1.8491744e-05
 -8.5077256e-02
  1.2839250e-03
 -1.0528131e-01
 -7.0768613e-01
 -8.2605728e-04
 -2.2542518e-02
 -4.9965587e-02
  1.5679826e-01
  7.5842708e-02
 -1.2131387e+00
 -3.1311727e-01
 -1.3324274e-01
 -6.3270926e-01
 -3.4321973e-01
 -2.9813591e-01
 -3.0792208e-02
  1.7694010e+00
 -9.8032188e-03
 -4.7415414e-01
 -5.0579894e-01
 -3.5932679e-02
 -8.1435138e-01
 -3.0748697e-02
 -4.5301329e-02
  2.4278902e-03
  3.2591933e-01
 -1.7779561e-02
  8.7535824e-04
  2.2743784e-02
  2.3033358e-03
  2.0154621e-01
 -5.8588549e-02
  2.4142863e-02
  8.4456272e-02
 -2.8617792e-03
 -9.8142549e-03
 -9.7317519e-05
 -4.7242683e-03
 -4.6155225e-03
 -1.3478287e-02
  1.4613972e-02
  1.3520614e-02
 -3.6667322e-03
 -3.9044912e-03
 -9.7992327e-03
  8.6237900e-03
 -7.5955512e-03
  2.7201062e-02
 -1.1503297e-03
 -2.0366842e-02
  1.4151902e-02
 -2.1773528e-02
  1.4318127e-02
  2.8831808e-02
 -6.0287090e-03
  8.8180155e-03
  8.4620342e-03
  4.1069649e-03
 -1.4045053e-02
  9.8375576e-03
  3.5294960e-04
  2.6221792e-03
  1.5928342e-03
  1.5056104e-03
 -2.1136966e-01
 -2.4667666e-03
  1.8337332e-03
  2.2994826e-02
 -4.3089243e-04
  3.5787452e-02
 -6.6582449e-03
  1.8358096e-02
  3.3836938e-02
 -1.9471801e-03
 -7.8001637e-03
  2.4326229e-03
 -1.0609864e-03
 -3.9220676e-03
  3.0374783e-03
 -1.8490506e-03
  3.6077346e-03
  1.3617871e-03
 -9.4859637e-03
  8.3707310e-03
 -4.2768911e-02
 -6.0992441e-03
  6.5483391e-01
  4.8821745e-03
 -7.4280072e-03
  1.4102923e+00
 -1.8843473e-03
 -9.9149561e-03
  1.9427555e-02
  2.0008478e-02
 -1.5184321e-02
  3.6273384e-03
 -2.6961284e-02
 -1.0065652e-02
  3.5572261e-02
 -2.7964070e-02
  4.1126609e-03
 -1.7641953e-03
 -1.2529034e-02
  3.5536631e-03
 -1.8108003e-02
 -2.5272614e-03
 -1.2641443e-02
 -7.2833672e-03
 -3.4115578e-03
  1.8109223e-02
  4.9137175e-03
 -2.4215018e-02
 -9.9194599e-03
  8.8487344e-04
  4.7634495e-03
 -2.2198637e-03
 -2.0324964e-02
  2.5516525e-03
  8.2980143e-03
 -3.2067758e-03
  6.8130763e-04
  1.3254329e-02
 -1.6805246e-02
  3.3285203e-03
 -2.9714562e-02
  2.0876653e-02
  1.4798853e-02
  2.3370760e-03
  2.7862061e-02
 -1.9438914e-03
 -1.6808436e-03
 -9.6144909e-03
  3.3912989e-03
 -1.7667542e-03
 -4.8521725e-03
 -4.0071905e-03
  7.3462133e-03
 -1.0777521e-04
  5.0797281e-03
 -1.3807598e-03
 -9.6737873e-03
 -1.1726975e-02
 -4.0780944e-03
  1.0794195e-02
  8.2258293e-03
  2.7472194e-02
 -1.9331209e-02
  2.6902875e-02
 -1.6838131e-03
 -1.0039983e-02
  3.1228196e-02
  4.9725648e-02
 -2.5557946e-02
  1.5603557e-02
 -1.5880475e-02
  2.7779168e-03
  8.1950929e-03
  5.8308849e-04
 -3.0069395e-03
  3.9599207e-03
  2.7881931e-03
 -8.3679492e-03
  6.8150950e-03
 -1.8012471e-02
  1.7332333e-03
  7.7203643e-03
  1.2944290e-02
 -7.2846217e-03
  5.1200148e-03
  1.6417151e-02
 -1.2092166e-02
 -1.5006015e-02
  2.7759178e-03
 -1.1245517e-02
  2.8030241e-02
 -1.4490091e-02
 -1.1984980e-02
 -8.6987372e-03
  1.2651461e-02
 -1.3279185e-02
  1.1146903e-02
 -1.1977280e-03
 -2.0368049e-02
  3.3336483e-02
 -2.8005781e-02
  2.4679761e-02
  6.0437266e-03
  1.6032547e-03
  7.7525629e-03
  3.1337840e-04
  2.6376322e-03
  5.8929999e-03
 -1.6872443e-02
  2.1257473e-02
  7.9144854e-03
 -4.2231907e-03
  4.7345296e-02
  1.9435183e-04
 -1.5403945e-02
 -1.1903136e-02
  6.3589243e-03
 -4.9575199e-03
  5.0514508e-03
 -8.4174853e-03
  2.7816305e-03
 -6.3789263e-03
  1.5574594e-01
 -3.5553966e-02
 -1.2928576e-02
 -1.7455353e-03
  2.3452079e-02
  2.3947230e-02
 -1.3572761e-01
  1.9857723e-03
 -3.2347940e-02
  6.6185966e-03
  2.7581830e-02
 -9.9966908e-03
  6.1085979e-03
 -4.2205169e-03
 -2.4542697e-03
 -6.6068210e-03
 -4.0609082e-03
  2.7828105e-03
  1.7780621e-02
 -1.7756738e-02
  1.9747635e-02
  7.7494554e-02
  9.9635422e-03
  7.9748258e-03
 -5.5330535e-03
  5.9408089e-04
  2.4304025e-02
  6.3104508e-03
  2.0137036e-02
  5.5665998e-03
  1.6340046e-01
 -6.2437046e-02
 -2.3201751e-03
  2.7201518e-03
  4.6368578e-04
 -3.4680065e-02
 -1.0186900e-02
 -2.3645565e-03
 -7.9676881e-03
 -4.6565384e-01
  6.3385377e-03
 -9.0237055e-04
 -4.9461827e-02
  3.1301398e-02
 -2.2557628e-01
  2.9755014e-01
 -8.4895948e-03
  1.9008569e-02
 -2.4742875e-02
 -3.6483005e-02
  2.7650299e-02
 -1.8837895e-02
  1.3436830e-02
  4.8744302e-02
 -7.2002225e-04
 -3.8965188e-03
 -1.6893242e-03
 -2.7031060e-02
  1.0763012e-02
 -6.6810166e-03
  7.0196479e-03
  2.2352554e-02
  9.1645513e-03
  4.2898245e-03
  2.0924611e-02
 -2.5072746e-02
 -5.3584543e-03
  1.6452147e-02
  1.1070007e-02
 -9.6753361e-03
  1.4971098e-02
 -6.4827343e-03
  1.4445622e-02
  1.4325083e-02
  1.0652644e-02
  2.5515426e-03
  1.9626938e-02
 -1.1846229e-02
 -2.0785177e-02
 -4.5289006e-04
  8.0018118e-04
 -5.2622095e-04
 -1.8217056e-03
  2.8220564e-04
 -4.8719705e-03
  7.2044106e-03
 -2.0960568e-02
 -1.0516722e-02
 -8.2089137e-03
 -5.3343107e-03
 -7.2365622e-03
 -5.8173314e-03
  3.2527270e-04
  1.5042612e-02
 -6.2633306e-05
 -1.6000304e-02
  3.0824752e-04
 -3.2900134e-04
  1.4641818e-02
 -3.4731213e-02
 -8.1757450e-04
 -2.5672346e-02
 -5.5622165e-03
  7.9102367e-03
  8.5817156e-03
 -5.3195283e-03
 -2.1397229e-04
  7.5159865e-03
 -1.7225845e-03
  3.9476599e-03
 -1.3399846e-02
  2.2654764e-03
  4.3546865e-03
  4.0638824e-03
  4.2381838e-02
  8.9353640e-03
 -5.9310859e-04
 -7.3774648e-03
 -9.9356435e-03
 -1.2311807e-03
 -2.6720325e-02
  1.1395558e-02
  5.5385912e-03
  2.8477622e-02
  1.0396738e-02
 -7.8405365e-03
  1.1244591e-02
 -2.2920942e-02
 -2.4138458e-02
  1.4099500e-02
  3.0770332e-02
  1.1127524e-02
  1.1345745e-03
 -1.3726904e-02
 -5.5067334e-03
  1.2141351e-02
 -5.2441429e-02
  3.2155570e-02
 -1.5897220e-03
  1.9626981e-02
  5.0379336e-03
 -1.8464474e-02
 -7.4475869e-03
 -1.9156959e-02
  2.4219912e-02
  3.7526188e-04
  1.7651105e-02
  8.9057600e-03
 -8.2850480e-04
  9.6286274e-03
 -1.4893517e-02
 -9.7906943e-03
 -1.3199162e-02
 -1.4543785e-02
 -1.3310495e-03
 -8.8957464e-03
 -3.9758034e-02
  2.5314519e-03
 -8.0391159e-03
  2.4984351e-03
  3.7073260e-03
  1.3962615e-03
 -2.3509400e-02
  9.4252899e-03
  2.5752285e-03
 -6.0901656e-03
  1.3577824e-02
 -4.9754390e-03
  2.3696631e-02
  1.7474255e-02
 -4.2739231e-04
  1.1182554e-03
  1.6621033e-03
  1.5397935e-02
  1.4018239e-02
 -1.4918586e-02
 -2.8369345e-02
  5.6994623e-03
 -9.1887899e-03
  4.5608706e-03
  1.2624608e-02
  3.6436744e-02
  4.5601521e-03
  3.9776787e-03
 -9.7248051e-03
  5.1452341e-03
 -5.7292939e-04
 -1.0341883e-02
  2.1793833e-03
  2.1973899e-02
 -4.7382186e-03
 -1.7869223e-03
 -2.1921026e-02
 -2.8029138e-02
 -2.8436219e-02
  1.0075566e-02
 -3.0480918e-02
 -1.8030029e-02
  2.2596070e-03
 -1.1825797e-02
  6.2811505e-03
 -3.9960006e-03
  1.5080230e-02
 -1.3527305e-02
  1.3982809e-02
  8.4016677e-03
 -1.0221200e-02
 -1.8812340e-02
  2.4418593e-03
 -6.2593445e-04
  3.1292722e-02
  4.3797130e-03
  2.4079097e-02
 -6.3619674e-03
  1.1623282e-02
  4.4404939e-03
  1.8207543e-02
  1.3228185e-02
 -3.3741337e-03
  1.7772244e-02
  1.8982776e-04
 -3.4566137e-03
 -2.0058382e-02
 -1.3172981e-02
 -6.0537634e-03
 -2.2147916e-02
  2.1639101e-03
  1.3269339e-02
  3.3659348e-03
  5.2447873e-03
  3.0081980e-02
  8.9570954e-03
 -8.7972051e-03
  1.7040956e+00
 -3.0115508e-03
 -1.2231448e-01
  9.9474084e-01
 -1.3318557e+00
  3.0653152e-01
  2.4190603e-01
 -1.3185546e-02
  7.3343140e-01
  5.4069066e-01
  3.7910843e-01
 -8.6612463e-01
 -2.0387091e-01
 -5.7233110e-02
  3.6909357e-02
 -3.7129825e-01
  4.0506814e-02
 -5.9281044e-02
  1.0872667e-01
  5.8556693e-03
  8.5413170e-01
 -4.5213908e-02
 -1.3806742e-01
 -5.0075364e-01
  3.8197227e-02
  1.6112864e-02
  7.6971651e-04
 -3.9682865e-02
  1.1842955e-02
 -4.9114767e-02
  1.4568268e+00
  7.5968532e-03
 -5.8017564e-01
 -2.4970777e-02
  5.1211670e-02
 -3.2196090e-01
 -3.5976425e-01
  1.3818283e-01
 -1.4530541e-01
 -4.8920624e-03
  7.0133834e-04
  1.0889881e+00
 -7.0361421e-02
  6.8597239e-01
 -8.4170885e-02
 -1.8018038e-03
  2.6613705e-02
 -5.6851357e-03
 -1.1982191e-02
  1.8441496e-02
  9.9634100e-03
 -4.7269829e-02
 -2.2916414e-02
  3.7687176e-03
 -1.1312955e-02
  2.0315764e-03
  5.6122094e-02
  4.6168007e-03
 -5.4639415e-04
 -6.7713102e-03
 -3.8260378e-02
 -1.7175600e-02
  2.2255668e-02
 -1.6826447e-02
  1.0393751e-03
 -5.1589040e-03
  5.7315738e-03
 -1.0573869e-02
 -5.7540815e-03
  1.4659121e-02
  9.7371067e-04
 -5.5788894e-04
 -2.1068763e-02
  2.7262494e-02
  1.5806889e-03
  7.1925847e-03
 -8.0051497e-03
  3.2841843e-03
 -6.8507618e-03
 -2.4565637e-02
  2.2159288e-02
 -6.8544783e-03
  3.3797538e-03
  7.1186456e-03
 -2.3970075e-02
  1.0108823e-02
  3.0123917e-03
 -2.3430819e-03
 -2.0922313e-02
 -5.5931155e-03
  1.4346831e-03
  2.1747269e-02
  4.8320182e-03
 -2.3637049e-02
  1.7803874e-02
 -3.0186007e-02
 -3.1877351e-03
  1.1046780e-03
 -1.0819456e-03
 -4.2197956e-03
  3.3611211e-03
 -8.0562867e-03
 -5.4591865e-04
  2.3688801e-02
 -1.3436532e-02
 -2.5179517e-02
 -2.0447290e-02
 -1.5502251e-03
 -5.8509363e-03
 -1.2667777e-03
 -2.6557257e-02
  6.0523432e-03
 -9.6111679e-03
  4.7082016e-03
  8.4802229e-03
 -3.9614895e-03
  3.5513401e-02
  5.9272568e-03
  4.0468806e-03
  8.2222521e-03
 -1.6039651e-02
 -5.2185834e-04
  5.8935378e-03
  2.8623519e-03
  2.5876742e-02
 -1.7413095e-02
  6.8440447e-03
 -1.8805472e-02
 -1.9422611e-03
  1.4848099e-04
 -2.2544218e-03
 -3.3503432e-02
 -1.6412728e-02
  2.1701559e-02
  6.2217535e-03
 -2.2041418e-02
 -6.7935172e-03
  2.0820852e-02
 -1.9986551e-02
  1.8293913e-02
 -4.8386727e-02
  3.5160869e-02
 -4.2386670e-03
 -4.1206363e-03
 -4.6040881e-03
  1.8937272e-03
 -1.4166450e-03
 -3.5355131e-03
  6.8679750e-03
 -7.7703747e-04
 -2.1939674e-02
 -1.4020663e-02
  6.1647734e-03
  7.6834098e-03
  1.5493467e-02
 -2.4939678e-04
 -7.7628857e-03
  1.5163315e-02
 -8.9468295e-03
 -1.9228538e-02
  1.1891003e-02
 -1.3477430e-03
  1.1770167e-02
  2.4114379e-03
 -3.4354865e-03
  3.6637345e-03
  5.2272741e-02
  1.6609364e-03
  2.7946526e-02
  1.2017705e-02
  3.1125976e-03
 -4.4077379e-03
 -2.8734300e-03
  1.1873004e-01
  3.2041046e-01
 -2.6387791e-03
 -1.8658230e-01
  2.8274310e-01
  2.8307226e-01
 -1.5431396e+00
 -8.9663872e-03
  1.8823845e-03
  6.4702243e-01
 -5.7757366e-01
 -2.9417410e-01
 -8.6739408e-03
  7.3228539e-03
  1.8812250e-04
 -5.6097430e-01
  2.3786329e-02
  3.4410006e-04
 -2.5073269e-01
  1.1442883e-01
  1.6463866e-02
  1.2439489e-01
 -3.5961648e-03
 -1.5180117e-02
 -1.3234222e-02
 -1.5079647e-01
  1.3457285e-01
  5.5470862e-03
  2.1798069e-02
  4.9751489e-03
 -1.2650005e-02
  9.8630585e-02
  8.2975458e-03
  3.1913312e-03
 -8.9110516e-02
 -4.7145963e-02
  2.2307800e-01
 -1.1127861e-01
  2.0861890e-02
  1.2035976e-01
  2.2124362e-01
 -1.0575000e-02
 -2.3300216e-01
  1.2931963e-02
  3.8090691e-01
  4.1794358e-03
 -7.8206576e-02
 -1.0309332e-02
 -4.1444041e-02
 -1.0131598e-02
 -9.9866120e-03
  1.8066236e-01
 -6.4442568e-02
 -3.8633676e-04
  4.4363844e-03
  4.8829196e-03
 -2.6443360e-02
  9.7513956e-04
 -2.0366652e+00
 -7.5964981e-01
 -3.3246568e-01
 -5.3833410e-02
  1.0266289e+00
 -3.6484265e-01
 -3.8351008e-01
  7.0089906e-01
  3.3508372e-02
  5.7633632e-01
 -2.0630794e+00
  1.8374926e-01
  2.1834726e+00
  1.7713958e-01
 -1.1781352e-02
 -7.0368540e-01
 -4.0318018e-01
 -9.0314396e-02
 -1.0532285e+00
  1.9333759e-01
 -7.3185258e-02
  8.7227851e-01
 -2.8931868e-01
  4.3455017e-01
 -2.0568140e-01
  5.6638783e-01
  1.1855152e-02
 -2.9686671e-01
  1.9518860e-02
 -1.3056968e-01
  5.8893555e-01
 -5.1195800e-01
  3.5916877e+00
 -8.8327521e-01
  9.3052119e-01
  1.2958926e-01
 -2.5015199e-01
 -7.3218471e-03
 -6.1654991e-01
  1.5914114e-02
 -1.4339861e-01
  6.9797885e-01
 -4.2061490e-01
  4.7612835e-02
  7.5171882e-01
 -2.0859881e-01
  2.2257122e-01
 -7.4695021e-01
  6.9222331e-02
  9.7543988e-03
 -1.3548452e-03
 -1.3030767e-01
  7.4476957e-02
  1.0599854e-01
  5.8570974e-02
  3.2877140e-02
  1.0513383e+00
  4.3125940e-03
 -3.7278202e-03
  2.8990773e-02
  1.5717508e-02
 -2.6728068e-02
 -8.2512172e-03
 -1.2627987e-03
  1.7681798e-01
 -8.8041015e-03
 -2.3934124e-03
 -5.9278332e-02
  8.8432841e-03
  1.0935297e-02
 -4.7580139e-03
 -9.0793753e-04
  1.9631928e-02
  3.7279658e-02
 -3.5979323e-02
 -4.0103495e-03
 -9.6799843e-03
 -1.6038198e-02
 -1.6322162e-02
 -5.5010652e-04
 -4.8418785e-04
  3.6122963e-02
  1.6929165e-02
 -4.4255964e-02
  1.5383468e-02
 -2.9567333e-02
 -7.5708451e-03
 -5.5711206e-02
  1.7065648e-02
  6.1769742e-03
 -5.6931698e-03
 -1.4426886e-01
  4.5578866e-03
  3.4919265e-03
  1.7957868e-02
 -6.9342768e-03
  3.0872095e-03
  4.2607600e-04
  7.1866751e-02
 -1.0525417e-02
 -1.4935073e-04
  2.1790326e-02
  7.8870356e-01
  2.1840731e-02
 -7.8163901e-03
 -4.8260819e-03
  6.5946984e-03
  4.9258741e-03
  4.6170023e-03
  1.5987393e-02
 -2.9254258e-02
 -1.4384406e-02
 -5.7423227e-03
 -7.8390129e-03
  1.0470682e-02
 -6.1873272e-03
  1.5377674e+00
 -6.2497659e-03
  1.8177185e-02
 -1.2058277e-02
  9.1940751e-03
 -2.3943037e-01
 -4.2090667e-03
 -3.3098999e-03
 -6.4090389e-04
 -1.8269476e-01
  1.8154938e-02
  2.9879513e-01
  1.0454823e-02
 -4.6984196e-01
 -3.8856477e-03
 -1.3936253e-02
 -1.1602288e-02
  8.0403984e-03
 -1.0331253e-02
  1.6114720e+00
  1.5913753e-02
  1.0161803e-02
 -5.6728315e-02
  1.1426700e+00
 -8.4371250e-03
 -6.7482114e-02
  2.6455961e-02
 -9.4192624e-03
  1.4876945e-02
 -1.2630944e-03
  4.5814544e-02
 -5.1842798e-03
 -9.9146385e-03
  9.0346909e-01
 -1.1064234e-02
  1.1561340e+00
 -1.8438751e+00
  7.8688441e-03
  1.9954545e-02
 -1.0807521e-02
 -6.2053991e-03
 -4.0786419e-02
 -5.7555204e-03
  4.3323215e-02
  4.1242972e-01
  5.5120462e-03
 -3.0467497e-02
  4.6653828e-01
  8.5704964e-01
 -2.3590911e-03
  3.6734754e-01
  9.2811082e-03
  3.5694162e-03
  1.4585823e-01
 -3.0395774e-02
  3.8993785e-01
  3.3481377e-03
 -1.7963046e-01
 -9.8197805e-03
  3.1419623e-01
  1.0188825e-01
  3.0499896e-01
  2.5666502e-01
  6.0916740e-01
  8.5967239e-03
 -1.0935188e-01
 -7.3384859e-02
 -7.3905282e-02
 -1.3985607e-02
 -5.5122775e-01
  4.3170355e-02
  2.7132010e-02
 -1.5894802e-02
 -2.6817986e-01
  2.8182724e-02
  1.1467599e+00
 -6.3996045e-03
 -1.3651531e-02
  2.9343987e-02
  1.3146750e-03
  1.0649119e-01
  2.2410614e-02
  1.8063165e-01
  8.8275772e-01
  2.1507734e-02
 -3.5774690e-01
 -3.6806846e-01
  6.6497758e-02
 -1.4275713e-02
  3.6463102e-03
 -1.2693995e-01
  9.2380767e-04
 -3.5072921e-04
 -2.0512531e-02
  2.1992637e-01
 -3.1009629e-02
  3.6187381e-02
  7.8478628e-01
 -1.2278541e+00
  8.8884488e-02
  2.9408758e+00
  7.4258196e-01
  7.3419273e-01
 -9.4402915e-01
  4.0879307e+00
  6.7063349e-01
  8.9463770e-01
 -1.7172554e+00
  5.1132880e-02
  2.6247289e+00
 -3.4810128e+00
  1.0886939e+00
 -3.0161664e-01
 -1.0300043e-01
  4.1365644e-01
 -1.1170737e+00
  1.1386975e+00
  8.7561578e-02
  1.9166384e+00
 -6.0815412e-01
  2.9524786e-02
  1.2866451e-01
  1.3583122e+00
 -1.2891539e+00
  2.7349429e-02
 -5.0800681e-01
  2.1215470e+00
  6.1782545e-01
 -1.2973096e+00
 -1.8843460e+00
  1.0989511e+00
  5.9588432e-01
  5.2437663e-01
 -2.2365141e+00
  8.7586176e-01
 -1.3929567e+00
  8.1213212e-01
  6.9884866e-01
  2.5856186e-02
 -6.8514186e-01
  6.7305383e-03
  3.0331431e-02
 -4.0756717e-01
  8.5043007e-01
  5.0075513e-01
 -6.2187582e-01
 -4.9206027e-01
 -2.0472276e+00
  3.7133074e+00
 -7.3806292e-01
  1.2849842e+00
 -8.4819436e-02
  8.3262306e-01
  3.9483821e-01
  4.7818536e-01
 -1.6510493e+00
 -9.0964518e-02
  1.4791620e+00
  3.0806530e+00
  4.4974905e-02
  2.0560467e-01
  1.6868225e+00
 -3.2427299e+00
  4.6497318e-01
 -1.9260870e+00
 -2.0368341e-01
  5.5747205e-01
 -4.5793098e-01
  1.8797284e+00
  5.9234089e-01
  3.7559404e+00
  1.3414247e+00
 -2.5624174e-01
  1.5476516e-01
 -3.8153267e-01
 -1.2766263e-01
 -7.3309398e-01
  1.6929369e-01
 -1.9616879e+00
  2.2301872e-03
 -3.6202204e-01
 -1.7109907e+00
  2.1458251e+00
  9.4844824e-01
 -5.1675755e-01
 -5.7624990e-01
  6.1485618e-01
  1.2763143e-01
 -2.6166153e+00
  4.2224860e-01
  2.5317514e+00
 -4.9193323e-02
 -1.1203635e-02
 -7.0483464e-01
  3.3148426e-01
  5.7520193e-01
 -1.1666142e+00
 -9.8330092e-01
 -1.9526354e+00
 -1.0948168e+00
 -2.0386865e+00
 -1.5980872e+00
 -3.2521322e+00
  1.1405703e+00
  1.3111494e-01
  1.6590554e+00
  1.0755515e+00
  7.2525940e-03
  9.3284118e-01
 -1.1949795e-01
 -1.1677311e-02
 -2.0393652e-03
 -8.1428587e-03
  2.7572229e+00
  1.7127993e+00
  1.0993654e-02
  5.5572549e-03
  6.4448193e-03
 -1.2374495e+00
  3.5108563e-01
 -5.7191085e-03
 -2.3142176e+00
  5.9276891e-01
  2.9593904e-03
 -3.1710207e-02
  4.8301628e-01
 -1.6592102e+00
 -1.5950650e-02
 -9.5433565e-03
 -1.4662024e-01
 -3.0747075e+00
 -7.5242622e-03
 -6.6955416e-03
 -7.6391983e-01
  1.1468692e+00
  5.8354805e-03
 -1.2056413e-02
 -1.4748741e+00
  2.6736325e-01
 -1.6030189e-01
  3.3639334e-02
 -4.2455482e-01
  2.2306581e-01
  3.6146208e-03
 -2.5003061e-03
 -2.0453023e-02
 -5.9135890e-01
  3.7750187e-03
  9.3397405e-03
 -6.3953251e-02
  1.1783441e+00
  2.5464335e-01
  1.2743017e-01
 -1.0697888e+00
 -4.7438967e-01
 -1.0663647e-02
  2.3426022e-04
 -2.3431146e+00
  1.6839076e+00
  7.5679449e-03
  9.6225217e-02
 -1.5331857e-02
 -5.0289911e-01
  3.0558719e-03
 -6.9300765e-03
 -1.0908070e+00
  1.0732248e+00
  2.9828714e-03
  6.5299851e-01
  1.9857684e+00
 -1.2865371e+00
 -3.9041135e-01
 -1.1681682e-02
 -1.1749895e+00
 -1.6805705e+00
 -3.2645263e-02
  3.7938514e-01
 -1.0169945e+00
  1.1319067e+00
  1.1507473e-02
  1.5107585e+00
 -9.6268582e-01
  2.5380213e+00
 -1.0549275e-03
  2.2731995e-02
 -2.0897510e+00
  2.2440548e+00
 -1.1223744e+00
  9.8304925e-03
 -1.8699764e+00
 -2.2644744e+00
 -1.8089260e-01
  5.9712994e-01
  6.3186032e-01
 -1.3269898e-02
 -2.5068608e-01
  3.2462192e-01
  5.1482153e-01
  2.4821355e+00
  9.8239046e-01
 -9.3786830e-01
 -1.4558375e+00
  9.2780907e-03
 -1.6015176e-01
 -9.8100930e-01
 -1.4851325e+00
 -1.7424005e+00
 -1.6523527e+00
  1.0703728e-01
  1.6997608e+00
 -1.3384566e+00
 -2.3542767e+00
 -1.2979910e+00
 -5.1020968e-01
 -1.3181168e+00
  5.8176965e-02
 -1.1637766e-01
 -3.3415148e+00
 -1.0483176e+00
 -5.4866683e-01
  3.8633298e-02
 -8.6058721e-02
  1.9634495e+00
  2.3971882e-01
 -3.6087420e-02
 -1.9819717e+00
 -1.5925685e+00
  3.5206530e-02
  4.9355957e-03
 -1.3469950e+00
 -1.5186323e+00
 -6.6109419e-01
 -1.6752921e-02
  1.0888488e+00
 -3.7852623e+00
 -5.7102704e-01
 -7.0504048e-03
 -1.1107460e-01
  2.9761064e-01
  8.9702100e-01
 -5.6432869e-02
 -8.0097514e-01
 -1.4189980e+00
 -5.9275967e-01
 -6.7186348e-02
